{"learner":{"attributes":{"best_iteration":"99","best_ntree_limit":"100","scikit_learn":"{\"use_label_encoder\": null, \"n_estimators\": 100, \"objective\": \"multi:softprob\", \"max_depth\": null, \"max_leaves\": null, \"max_bin\": null, \"grow_policy\": null, \"learning_rate\": null, \"verbosity\": null, \"booster\": null, \"tree_method\": null, \"gamma\": null, \"min_child_weight\": null, \"max_delta_step\": null, \"subsample\": null, \"sampling_method\": null, \"colsample_bytree\": null, \"colsample_bylevel\": null, \"colsample_bynode\": null, \"reg_alpha\": null, \"reg_lambda\": null, \"scale_pos_weight\": null, \"base_score\": null, \"missing\": NaN, \"num_parallel_tree\": null, \"random_state\": null, \"n_jobs\": null, \"monotone_constraints\": null, \"interaction_constraints\": null, \"importance_type\": null, \"gpu_id\": null, \"validate_parameters\": null, \"predictor\": null, \"enable_categorical\": false, \"feature_types\": null, \"max_cat_to_onehot\": null, \"max_cat_threshold\": null, \"eval_metric\": null, \"early_stopping_rounds\": null, \"callbacks\": null, \"classes_\": [0.0, 1.0, 2.0, 3.0, 4.0], \"n_classes_\": 5, \"_estimator_type\": \"classifier\"}"},"feature_names":[],"feature_types":[],"gradient_booster":{"model":{"gbtree_model_param":{"num_parallel_tree":"1","num_trees":"500","size_leaf_vector":"0"},"tree_info":[0,1,2,3,4,0,1,2,3,4,0,1,2,3,4,0,1,2,3,4,0,1,2,3,4,0,1,2,3,4,0,1,2,3,4,0,1,2,3,4,0,1,2,3,4,0,1,2,3,4,0,1,2,3,4,0,1,2,3,4,0,1,2,3,4,0,1,2,3,4,0,1,2,3,4,0,1,2,3,4,0,1,2,3,4,0,1,2,3,4,0,1,2,3,4,0,1,2,3,4,0,1,2,3,4,0,1,2,3,4,0,1,2,3,4,0,1,2,3,4,0,1,2,3,4,0,1,2,3,4,0,1,2,3,4,0,1,2,3,4,0,1,2,3,4,0,1,2,3,4,0,1,2,3,4,0,1,2,3,4,0,1,2,3,4,0,1,2,3,4,0,1,2,3,4,0,1,2,3,4,0,1,2,3,4,0,1,2,3,4,0,1,2,3,4,0,1,2,3,4,0,1,2,3,4,0,1,2,3,4,0,1,2,3,4,0,1,2,3,4,0,1,2,3,4,0,1,2,3,4,0,1,2,3,4,0,1,2,3,4,0,1,2,3,4,0,1,2,3,4,0,1,2,3,4,0,1,2,3,4,0,1,2,3,4,0,1,2,3,4,0,1,2,3,4,0,1,2,3,4,0,1,2,3,4,0,1,2,3,4,0,1,2,3,4,0,1,2,3,4,0,1,2,3,4,0,1,2,3,4,0,1,2,3,4,0,1,2,3,4,0,1,2,3,4,0,1,2,3,4,0,1,2,3,4,0,1,2,3,4,0,1,2,3,4,0,1,2,3,4,0,1,2,3,4,0,1,2,3,4,0,1,2,3,4,0,1,2,3,4,0,1,2,3,4,0,1,2,3,4,0,1,2,3,4,0,1,2,3,4,0,1,2,3,4,0,1,2,3,4,0,1,2,3,4,0,1,2,3,4,0,1,2,3,4,0,1,2,3,4,0,1,2,3,4,0,1,2,3,4,0,1,2,3,4,0,1,2,3,4,0,1,2,3,4,0,1,2,3,4,0,1,2,3,4,0,1,2,3,4,0,1,2,3,4,0,1,2,3,4,0,1,2,3,4,0,1,2,3,4,0,1,2,3,4,0,1,2,3,4,0,1,2,3,4,0,1,2,3,4],"trees":[{"base_weights":[-6.23335E-1],"categories":[],"categories_nodes":[],"categories_segments":[],"categories_sizes":[],"default_left":[0],"id":0,"left_children":[-1],"loss_changes":[0E0],"parents":[2147483647],"right_children":[-1],"split_conditions":[-1.8700051E-1],"split_indices":[0],"split_type":[0],"sum_hessian":[2.5600002E4],"tree_param":{"num_deleted":"0","num_feature":"10","num_nodes":"1","size_leaf_vector":"0"}},{"base_weights":[-5.1150346E-1,-3.8343254E-1,-5.689873E-1,-1.3464233E-1,-5.0841933E-1,-4.9181986E-1,-5.941069E-1,3.3599213E-1,-3.7490043E-1,-3.5658187E-1,-5.658308E-1,-3.3069918E-1,-5.506242E-1,-6.0579306E-1,-5.395323E-1,7.10209E-1,-2.858326E-1,-1.7718612E-1,-4.8892555E-1,-1.2790415E-1,-4.7410372E-1,-5.990426E-1,-4.8779637E-1,-1.0197603E-1,-5.045677E-1,-5.8596975E-1,-4.4630057E-1,-5.656531E-1,-6.13946E-1,-5.719501E-1,-3.733113E-1,3.4630042E-1,1.1378827E0,-8.453278E-2,-4.991457E-1,6.802344E-2,-4.8893896E-1,-5.1956946E-1,-2.3755287E-1,6.26118E-2,-5.271725E-1,-5.1202536E-1,-2.901517E-1,-5.997611E-1,5.154639E-2,-5.5024457E-1,-2.706883E-1,1.17517434E-1,-5.03702E-1,-4.40376E-1,-6.0319424E-1,-5.058043E-1,-6.048395E-1,-5.359238E-1,-2.1927543E-1,-5.042315E-1,-6.000874E-1,-6.2008524E-1,-5.9264076E-1,-6.029644E-1,-4.9708602E-1,-1.00873224E-1,-5.1320106E-1,4.8271626E-1,1.00182146E-1,1.4382895E0,-6.0929168E-2,8.993373E-2,-5.312246E-1,-5.2235115E-1,9.589041E-1,-1.6313067E-1,4.4258025E-1,-3.228888E-1,-5.826859E-1,-4.5317218E-1,-5.766473E-1,-4.3267003E-1,2.1878333E-1,4.158215E-1,-8.4104285E-2,-6.117455E-1,-2.4134311E-1,-4.3360972E-1,-5.9041524E-1,-4.7745827E-1,1.0286553E-1,-5.5874E-1,-6.144858E-1,-3.8461536E-1,5.2631575E-1,-5.690276E-1,-2.7683997E-1,-4.1109967E-1,1.5384614E-1,-9.0469174E-2,4.0395233E-1,-5.246984E-1,6.7415726E-1,-4.685696E-1,2.4958402E-2,-6.182572E-1,-3.674833E-1,-3.0956846E-1,-5.6368375E-1,-6.0534835E-1,8.77193E-2,-5.4082125E-1,6.164383E-1,-4.0803894E-1,2.4274717E-1,-3.3637398E-1,-5.619366E-1,8.77193E-2,-6.0090244E-1,-6.137001E-1,-5.4876244E-1,8.77193E-2,-6.036643E-1,-5.760126E-1,-3.476983E-1,-3.996325E-1,4.576561E-1,5.2631575E-1,-5.204899E-1],"categories":[],"categories_nodes":[],"categories_segments":[],"categories_sizes":[],"default_left":[1,1,1,1,1,1,1,1,1,1,1,1,1,1,1,1,1,1,1,1,1,1,1,1,1,1,1,1,1,1,1,1,1,1,1,1,1,1,1,1,1,1,1,1,1,1,1,1,1,1,1,1,1,1,1,1,1,0,1,1,1,1,1,0,0,0,0,0,0,0,0,0,0,0,0,0,0,0,0,0,0,0,0,0,0,0,0,0,0,0,0,0,0,0,0,0,0,0,0,0,0,0,0,0,0,0,0,0,0,0,0,0,0,0,0,0,0,0,0,0,0,0,0,0,0],"id":1,"left_children":[1,3,5,7,9,11,13,15,17,19,21,23,25,27,29,31,33,35,37,39,41,43,45,47,49,51,53,55,57,59,61,63,65,67,69,71,73,75,77,79,81,83,85,87,89,91,93,95,97,99,101,103,105,107,109,111,113,-1,115,117,119,121,123,-1,-1,-1,-1,-1,-1,-1,-1,-1,-1,-1,-1,-1,-1,-1,-1,-1,-1,-1,-1,-1,-1,-1,-1,-1,-1,-1,-1,-1,-1,-1,-1,-1,-1,-1,-1,-1,-1,-1,-1,-1,-1,-1,-1,-1,-1,-1,-1,-1,-1,-1,-1,-1,-1,-1,-1,-1,-1,-1,-1,-1,-1],"loss_changes":[1.8825732E2,2.466471E2,3.395508E1,3.0027344E2,4.5830933E1,4.0981934E1,8.170898E0,2.0908142E2,3.9541946E1,3.894948E1,9.634033E0,4.624617E1,1.1469727E1,3.241455E0,1.2498352E1,8.686691E1,1.446977E1,4.930346E1,8.45993E0,3.761923E1,6.537277E0,1.2848511E0,1.5427063E1,4.450354E1,3.920166E0,3.2839966E0,1.6349487E1,3.6399536E0,8.232422E-1,4.27948E0,1.4730846E1,1.0170357E1,9.275656E1,1.3692245E1,6.045723E0,3.138312E1,4.230919E0,3.4995117E0,1.1039339E1,1.7415918E1,3.7133446E0,4.620529E0,1.2277993E1,1.2750854E0,1.0058851E0,4.4192505E0,1.5478252E1,1.9503149E1,4.762722E0,5.314575E0,6.8868256E-1,5.030655E0,7.2821045E-1,3.604248E0,2.0224327E1,6.357727E0,7.192688E-1,0E0,1.5657349E0,7.2473145E-1,6.6783905E0,2.234935E1,2.2139053E0,0E0,0E0,0E0,0E0,0E0,0E0,0E0,0E0,0E0,0E0,0E0,0E0,0E0,0E0,0E0,0E0,0E0,0E0,0E0,0E0,0E0,0E0,0E0,0E0,0E0,0E0,0E0,0E0,0E0,0E0,0E0,0E0,0E0,0E0,0E0,0E0,0E0,0E0,0E0,0E0,0E0,0E0,0E0,0E0,0E0,0E0,0E0,0E0,0E0,0E0,0E0,0E0,0E0,0E0,0E0,0E0,0E0,0E0,0E0,0E0,0E0,0E0],"parents":[2147483647,0,0,1,1,2,2,3,3,4,4,5,5,6,6,7,7,8,8,9,9,10,10,11,11,12,12,13,13,14,14,15,15,16,16,17,17,18,18,19,19,20,20,21,21,22,22,23,23,24,24,25,25,26,26,27,27,28,28,29,29,30,30,31,31,32,32,33,33,34,34,35,35,36,36,37,37,38,38,39,39,40,40,41,41,42,42,43,43,44,44,45,45,46,46,47,47,48,48,49,49,50,50,51,51,52,52,53,53,54,54,55,55,56,56,58,58,59,59,60,60,61,61,62,62],"right_children":[2,4,6,8,10,12,14,16,18,20,22,24,26,28,30,32,34,36,38,40,42,44,46,48,50,52,54,56,58,60,62,64,66,68,70,72,74,76,78,80,82,84,86,88,90,92,94,96,98,100,102,104,106,108,110,112,114,-1,116,118,120,122,124,-1,-1,-1,-1,-1,-1,-1,-1,-1,-1,-1,-1,-1,-1,-1,-1,-1,-1,-1,-1,-1,-1,-1,-1,-1,-1,-1,-1,-1,-1,-1,-1,-1,-1,-1,-1,-1,-1,-1,-1,-1,-1,-1,-1,-1,-1,-1,-1,-1,-1,-1,-1,-1,-1,-1,-1,-1,-1,-1,-1,-1,-1],"split_conditions":[2.2363696E0,2.3308196E0,1.9902735E0,2.3572526E0,2.115198E0,2.0830867E0,4.290843E0,2.7445505E0,3.3256779E0,3.2113447E0,3.777398E0,3.42762E0,3.9866238E0,1.6787953E0,4.320794E0,9.874554E-1,3.917399E0,2.3107386E0,4.5809145E0,3.1436973E0,4.2755327E0,5.1041136E0,4.069417E0,2.7913613E0,2.7518988E0,2.7679737E0,3.8608222E0,3.053998E0,4.0886564E0,3.8491578E0,2.351152E0,1.8193238E0,3.30471E0,2.756493E0,4.970834E0,1.2069694E0,3.2977462E0,1.7918776E0,3.8415918E0,1.365969E0,4.1024017E0,2.0428376E0,3.7055902E0,2.8859324E0,3.3169656E0,4.637743E0,4.077278E0,1.3837972E0,4.9280167E0,4.5635605E0,4.7511578E0,2.7471826E0,5.108159E0,5.0456023E0,3.8500113E0,3.0016756E0,2.2392585E0,-1.8602557E-1,3.65798E0,4.2914877E0,3.2170174E0,3.5172381E0,4.3238287E0,1.4481488E-1,3.0054646E-2,4.3148687E-1,-1.8278752E-2,2.698012E-2,-1.5936738E-1,-1.5670535E-1,2.8767124E-1,-4.8939202E-2,1.3277408E-1,-9.6866645E-2,-1.7480578E-1,-1.3595165E-1,-1.729942E-1,-1.2980102E-1,6.5635E-2,1.2474645E-1,-2.5231287E-2,-1.8352365E-1,-7.240294E-2,-1.3008292E-1,-1.7712457E-1,-1.4323749E-1,3.085966E-2,-1.6762201E-1,-1.8434575E-1,-1.15384616E-1,1.5789473E-1,-1.7070828E-1,-8.3051994E-2,-1.2332991E-1,4.6153843E-2,-2.7140753E-2,1.21185705E-1,-1.5740952E-1,2.0224719E-1,-1.405709E-1,7.487521E-3,-1.8547717E-1,-1.1024499E-1,-9.287054E-2,-1.6910513E-1,-1.816045E-1,2.6315792E-2,-1.6224638E-1,1.849315E-1,-1.2241169E-1,7.282416E-2,-1.009122E-1,-1.68581E-1,2.6315792E-2,-1.8027073E-1,-1.8411003E-1,-1.6462874E-1,2.6315792E-2,-1.810993E-1,-1.7280379E-1,-1.0430949E-1,-1.1988976E-1,1.3729683E-1,1.5789473E-1,-1.5614697E-1],"split_indices":[0,1,2,2,2,1,5,3,2,1,6,0,7,1,6,8,3,3,7,3,5,7,5,3,3,0,6,2,7,7,1,1,4,4,9,8,3,3,6,0,6,3,7,2,2,8,7,8,9,8,8,1,6,8,5,0,0,0,6,5,6,7,6,0,0,0,0,0,0,0,0,0,0,0,0,0,0,0,0,0,0,0,0,0,0,0,0,0,0,0,0,0,0,0,0,0,0,0,0,0,0,0,0,0,0,0,0,0,0,0,0,0,0,0,0,0,0,0,0,0,0,0,0,0,0],"split_type":[0,0,0,0,0,0,0,0,0,0,0,0,0,0,0,0,0,0,0,0,0,0,0,0,0,0,0,0,0,0,0,0,0,0,0,0,0,0,0,0,0,0,0,0,0,0,0,0,0,0,0,0,0,0,0,0,0,0,0,0,0,0,0,0,0,0,0,0,0,0,0,0,0,0,0,0,0,0,0,0,0,0,0,0,0,0,0,0,0,0,0,0,0,0,0,0,0,0,0,0,0,0,0,0,0,0,0,0,0,0,0,0,0,0,0,0,0,0,0,0,0,0,0,0,0],"sum_hessian":[2.5600002E4,7.9331206E3,1.766688E4,2.6534402E3,5.27968E3,4.34368E3,1.3323201E4,8.966401E2,1.7568002E3,1.45056E3,3.8291204E3,1.1632001E3,3.1804802E3,1.0965121E4,2.35808E3,5.5968005E2,3.3696002E2,6.4352E2,1.11328E3,4.9312003E2,9.5744006E2,2.6812803E3,1.1478401E3,5.0304004E2,6.6016003E2,2.3721602E3,8.0832007E2,1.8630402E3,9.102081E3,1.9712002E3,3.8688004E2,3.0336002E2,2.5632E2,1.7408002E2,1.6288E2,3.6064E2,2.8288E2,9.9136005E2,1.21920006E2,3.3440002E2,1.5872002E2,7.9232007E2,1.6512001E2,2.6784001E3,2.88E0,8.9024005E2,2.576E2,3.2576E2,1.7728001E2,4.0320004E2,2.5696002E2,4.5728003E2,1.9148801E3,5.7856006E2,2.2976001E2,6.7488007E2,1.18816E3,7.0441606E3,2.0579202E3,1.3888E3,5.824E2,1.3184001E2,2.5504002E2,1.9456001E2,1.0880001E2,2.0480002E2,5.1520004E1,1.2576001E2,4.8320004E1,1.6096E2,1.9200001E0,2.2336002E2,1.3728001E2,1.0368001E2,1.7920001E2,4.6240002E2,5.2896E2,8.544E1,3.6480003E1,9.7600006E1,2.3680002E2,1.21600006E2,3.7120003E1,3.9936002E2,3.9296002E2,1.1168001E2,5.3440002E1,7.177601E2,1.9606401E3,1.6000001E0,1.2800001E0,8.3200006E2,5.8240005E1,1.936E2,6.400001E1,1.8912001E2,1.3664001E2,1.7472002E2,2.5600002E0,3.8016003E2,2.304E1,2.4000002E2,1.6960001E1,1.05600006E2,3.5168002E2,1.9136001E3,1.2800001E0,5.7664E2,1.9200001E0,1.6320001E2,6.6560005E1,1.7440001E2,5.0048004E2,1.2800001E0,1.1868801E3,1.3817601E3,6.7616003E2,1.2800001E0,1.3875201E3,3.792E2,2.0320001E2,8.608001E1,4.5760002E1,1.2800001E0,2.5376003E2],"tree_param":{"num_deleted":"0","num_feature":"10","num_nodes":"125","size_leaf_vector":"0"}},{"base_weights":[8.189523E-1,1.1914204E0,3.897894E-1,1.4801236E0,6.969013E-1,8.7142414E-1,-7.731911E-3,1.6714784E0,1.0598568E0,1.3219405E0,2.1670093E-1,1.3695877E0,3.199336E-1,4.7485116E-1,-2.9619935E-1,1.7081139E0,1.3352137E0,1.3154484E0,2.8485712E-1,1.5802962E0,4.4963026E-1,4.8444855E-1,-2.6854873E-1,1.5754799E0,5.5984956E-1,6.1061E-1,-2.8453717E-1,7.457965E-1,-1.2689283E-1,-1.6763581E-1,-5.044834E-1,1.6258993E0,1.8049998E0,1.8241757E0,9.092632E-1,1.6445245E0,9.6193683E-1,7.6077336E-1,-1.36948E-1,1.7819117E0,1.2687638E0,7.289016E-1,-2.625667E-1,8.5411793E-1,1.7549443E-1,-2.7171409E-2,-4.4757205E-1,1.795042E0,1.3476583E0,8.1597376E-1,-2.7409372E-1,3.0856508E-1,9.148698E-1,-3.6207587E-2,-4.2301628E-1,1.1216946E0,4.7511125E-1,1.783559E-1,-3.241906E-1,1.0819494E-1,-3.58531E-1,-5.479901E-1,-3.0163082E-1,1.5915363E0,2.172218E0,1.8541155E0,1.2877804E0,1.9744058E0,6.8427366E-1,1.4455247E0,4.8187342E-1,1.8674002E0,1.3593441E0,1.3530235E0,5.337912E-1,1.0244286E0,-3.0131826E-1,2.9243934E-1,-4.1171086E-1,1.8102031E0,7.293127E-1,1.3479663E0,-1.01387404E-1,1.1251771E0,2.50666E-1,1.5815084E-1,-4.8023796E-1,1.3525898E0,5.923294E-1,4.17666E-1,-1.5954928E-1,4.93058E-1,-2.0810106E-1,-3.2011026E-1,-5.4896873E-1,1.9488502E0,1.6609489E0,1.6933616E0,1.1255232E0,1.3106902E0,4.5914394E-1,2.5564802E-1,-4.4431508E-1,6.5465975E-1,7.445413E-2,1.129853E0,-2.8685456E-2,1.5424164E-1,-4.3298966E-1,-1.6845328E-1,-5.044142E-1,1.2109398E0,-1.2992455E-1,7.3141485E-1,1.4600576E-1,4.3362996E-1,-4.3616536E-1,-2.2770397E-1,-5.3144735E-1,4.790419E-1,-1.4637803E-1,-1.1455456E-1,-4.4477913E-1,-5.7649446E-1,-4.331013E-1,-4.6485716E-1,1.0163609E-1],"categories":[],"categories_nodes":[],"categories_segments":[],"categories_sizes":[],"default_left":[1,1,1,1,1,1,1,1,1,1,1,1,1,1,1,1,1,1,1,1,1,1,1,1,1,1,1,1,1,1,1,1,1,1,1,1,1,1,1,1,1,1,1,1,1,1,1,1,1,1,1,1,1,1,1,1,1,1,1,1,1,1,1,0,0,0,0,0,0,0,0,0,0,0,0,0,0,0,0,0,0,0,0,0,0,0,0,0,0,0,0,0,0,0,0,0,0,0,0,0,0,0,0,0,0,0,0,0,0,0,0,0,0,0,0,0,0,0,0,0,0,0,0,0,0,0,0],"id":2,"left_children":[1,3,5,7,9,11,13,15,17,19,21,23,25,27,29,31,33,35,37,39,41,43,45,47,49,51,53,55,57,59,61,63,65,67,69,71,73,75,77,79,81,83,85,87,89,91,93,95,97,99,101,103,105,107,109,111,113,115,117,119,121,123,125,-1,-1,-1,-1,-1,-1,-1,-1,-1,-1,-1,-1,-1,-1,-1,-1,-1,-1,-1,-1,-1,-1,-1,-1,-1,-1,-1,-1,-1,-1,-1,-1,-1,-1,-1,-1,-1,-1,-1,-1,-1,-1,-1,-1,-1,-1,-1,-1,-1,-1,-1,-1,-1,-1,-1,-1,-1,-1,-1,-1,-1,-1,-1,-1],"loss_changes":[4.0918418E3,1.955666E3,2.277746E3,6.940664E2,1.516582E3,1.4774138E3,9.075694E2,7.094141E1,5.363921E2,4.9409448E2,3.716153E2,4.702583E2,4.4897458E2,3.9776166E2,1.0917825E2,3.9729492E1,1.2091431E2,2.3544238E2,1.3526909E2,1.04106445E2,1.00252106E2,2.103316E2,4.394845E1,1.10254395E2,1.22920074E2,1.5826013E2,2.8531235E1,1.7060663E2,4.571552E1,1.329668E2,1.3574524E1,5.1126465E1,5.984131E1,4.5399597E1,7.18475E1,6.444116E1,1.6415466E2,8.894252E1,4.2333538E1,2.92229E1,7.271875E1,6.825346E1,1.3120337E1,1.0865222E2,8.162337E1,4.0979187E1,7.3725204E0,2.0358643E1,8.329419E1,7.702176E1,1.2351916E1,7.0218994E1,1.7426306E2,2.2606863E1,1.09559555E1,7.8727844E1,8.251996E1,4.698072E1,9.094631E0,9.7623405E1,3.1348694E1,3.944336E0,1.829097E1,0E0,0E0,0E0,0E0,0E0,0E0,0E0,0E0,0E0,0E0,0E0,0E0,0E0,0E0,0E0,0E0,0E0,0E0,0E0,0E0,0E0,0E0,0E0,0E0,0E0,0E0,0E0,0E0,0E0,0E0,0E0,0E0,0E0,0E0,0E0,0E0,0E0,0E0,0E0,0E0,0E0,0E0,0E0,0E0,0E0,0E0,0E0,0E0,0E0,0E0,0E0,0E0,0E0,0E0,0E0,0E0,0E0,0E0,0E0,0E0,0E0,0E0,0E0,0E0],"parents":[2147483647,0,0,1,1,2,2,3,3,4,4,5,5,6,6,7,7,8,8,9,9,10,10,11,11,12,12,13,13,14,14,15,15,16,16,17,17,18,18,19,19,20,20,21,21,22,22,23,23,24,24,25,25,26,26,27,27,28,28,29,29,30,30,31,31,32,32,33,33,34,34,35,35,36,36,37,37,38,38,39,39,40,40,41,41,42,42,43,43,44,44,45,45,46,46,47,47,48,48,49,49,50,50,51,51,52,52,53,53,54,54,55,55,56,56,57,57,58,58,59,59,60,60,61,61,62,62],"right_children":[2,4,6,8,10,12,14,16,18,20,22,24,26,28,30,32,34,36,38,40,42,44,46,48,50,52,54,56,58,60,62,64,66,68,70,72,74,76,78,80,82,84,86,88,90,92,94,96,98,100,102,104,106,108,110,112,114,116,118,120,122,124,126,-1,-1,-1,-1,-1,-1,-1,-1,-1,-1,-1,-1,-1,-1,-1,-1,-1,-1,-1,-1,-1,-1,-1,-1,-1,-1,-1,-1,-1,-1,-1,-1,-1,-1,-1,-1,-1,-1,-1,-1,-1,-1,-1,-1,-1,-1,-1,-1,-1,-1,-1,-1,-1,-1,-1,-1,-1,-1,-1,-1,-1,-1,-1,-1],"split_conditions":[3.1448312E0,3.5395288E0,2.7986264E0,3.7510626E0,2.7342598E0,3.0992844E0,2.4893882E0,4.405083E0,3.5243664E0,3.6789274E0,2.8735604E0,3.8113132E0,3.0476768E0,3.1784508E0,2.7080545E0,1.9325757E0,2.256053E0,2.3238745E0,2.2022927E0,2.2920203E0,2.7295392E0,1.9842675E0,3.6840596E0,2.0915096E0,3.1099534E0,1.0432243E0,3.8291495E0,3.7147546E0,3.65432E0,3.5186877E0,4.2899976E0,3.4501991E0,4.3135734E0,3.8853593E0,2.126487E0,2.1918426E0,2.1322436E0,3.3465867E0,1.8071494E0,4.669791E0,4.261814E0,2.1431928E0,1.6990352E0,3.5235202E0,4.036045E0,1.5634336E0,1.968164E0,1.8391129E0,3.8766193E0,1.8557047E0,4.108147E0,3.886547E0,3.4326997E0,2.260456E0,3.5333824E0,4.0065007E0,4.20642E0,2.5963774E0,2.4071598E0,3.7042112E0,3.3979506E0,4.1851254E0,3.9414175E0,4.774609E-1,6.5166545E-1,5.5623466E-1,3.8633415E-1,5.9232175E-1,2.052821E-1,4.3365744E-1,1.4456204E-1,5.6022006E-1,4.0780327E-1,4.0590706E-1,1.6013736E-1,3.0732858E-1,-9.039548E-2,8.773181E-2,-1.2351326E-1,5.4306096E-1,2.1879382E-1,4.0438992E-1,-3.0416222E-2,3.3755314E-1,7.51998E-2,4.7445253E-2,-1.440714E-1,4.0577698E-1,1.7769882E-1,1.252998E-1,-4.7864787E-2,1.479174E-1,-6.2430322E-2,-9.603308E-2,-1.6469063E-1,5.8465505E-1,4.9828467E-1,5.0800854E-1,3.3765697E-1,3.9320707E-1,1.3774319E-1,7.669441E-2,-1.3329452E-1,1.9639793E-1,2.2336239E-2,3.389559E-1,-8.605638E-3,4.6272494E-2,-1.2989691E-1,-5.0535984E-2,-1.5132427E-1,3.6328194E-1,-3.8977366E-2,2.1942447E-1,4.3801732E-2,1.30089E-1,-1.3084961E-1,-6.831119E-2,-1.5943421E-1,1.4371258E-1,-4.391341E-2,-3.436637E-2,-1.3343374E-1,-1.7294835E-1,-1.2993039E-1,-1.3945715E-1,3.0490829E-2],"split_indices":[1,2,2,0,0,0,0,3,3,3,3,3,3,3,3,3,0,2,2,1,4,1,0,0,4,8,1,2,2,0,5,4,4,4,2,1,1,4,1,4,4,1,1,0,0,1,1,2,1,0,3,1,4,4,0,4,1,4,4,2,2,8,7,0,0,0,0,0,0,0,0,0,0,0,0,0,0,0,0,0,0,0,0,0,0,0,0,0,0,0,0,0,0,0,0,0,0,0,0,0,0,0,0,0,0,0,0,0,0,0,0,0,0,0,0,0,0,0,0,0,0,0,0,0,0,0,0],"split_type":[0,0,0,0,0,0,0,0,0,0,0,0,0,0,0,0,0,0,0,0,0,0,0,0,0,0,0,0,0,0,0,0,0,0,0,0,0,0,0,0,0,0,0,0,0,0,0,0,0,0,0,0,0,0,0,0,0,0,0,0,0,0,0,0,0,0,0,0,0,0,0,0,0,0,0,0,0,0,0,0,0,0,0,0,0,0,0,0,0,0,0,0,0,0,0,0,0,0,0,0,0,0,0,0,0,0,0,0,0,0,0,0,0,0,0,0,0,0,0,0,0,0,0,0,0,0,0],"sum_hessian":[2.5600002E4,1.3704321E4,1.1895681E4,8.6515205E3,5.0528003E3,5.37824E3,6.5174404E3,5.94272E3,2.7088003E3,2.19456E3,2.8582402E3,2.8249602E3,2.5532803E3,2.43808E3,4.0793604E3,5.3552E3,5.8752E2,2.0364801E3,6.7232007E2,1.6924801E3,5.0208005E2,1.8419202E3,1.01632007E3,2.2515203E3,5.7344006E2,1.7241602E3,8.2912006E2,1.6809601E3,7.5712006E2,2.5235203E3,1.5558401E3,2.9065603E3,2.4486401E3,2.7200003E2,3.1552002E2,1.0528E3,9.8368005E2,3.1552002E2,3.5680002E2,1.02464E3,6.6784E2,3.6064E2,1.4144E2,8.377601E2,1.0041601E3,4.3328003E2,5.8304004E2,1.14304E3,1.1084801E3,4.3872003E2,1.3472002E2,8.6624005E2,8.5792004E2,2.9728003E2,5.3184E2,7.024E2,9.7856006E2,2.9728003E2,4.5984003E2,1.0323201E3,1.4912001E3,1.27968E3,2.7616003E2,2.7382402E3,1.6832E2,2.2339202E3,2.1472002E2,2.3968002E2,3.2320004E1,1.3888E2,1.7664001E2,5.8784E2,4.6496002E2,5.1296E2,4.7072003E2,2.5280002E2,6.2720005E1,1.3920001E2,2.1760002E2,9.9712006E2,2.7520002E1,6.3136005E2,3.6480003E1,1.9648001E2,1.6416002E2,4.8320004E1,9.312001E1,2.8704E2,5.5072003E2,5.8272003E2,4.2144003E2,1.1136001E2,3.2192E2,2.6016E2,3.2288004E2,5.2608E2,6.1696E2,4.3104004E2,6.7744006E2,1.8272002E2,2.5600003E2,3.2640003E1,1.0208001E2,3.4880002E2,5.1744006E2,6.9856006E2,1.5936002E2,2.0128001E2,9.600001E1,1.296E2,4.0224002E2,6.5568005E2,4.6720005E1,5.4944006E2,4.2912003E2,2.1024002E2,8.704001E1,3.152E2,1.4464001E2,4.1984003E2,6.1248004E2,3.9008002E2,1.1011201E3,1.0220801E3,2.576E2,1.9648001E2,7.968001E1],"tree_param":{"num_deleted":"0","num_feature":"10","num_nodes":"127","size_leaf_vector":"0"}},{"base_weights":[9.020741E-1,4.227334E-1,1.3448099E0,1.8651186E-2,9.846687E-1,8.379028E-1,1.7611872E0,-3.100424E-1,4.8505998E-1,3.319677E-1,1.4634606E0,3.2608002E-1,1.3999217E0,1.287307E0,2.0801678E0,-3.9314908E-1,2.954138E-2,2.4103908E-1,1.2482547E0,1.05608575E-1,1.2069736E0,1.182094E0,2.023795E0,1.1451903E-1,1.1591151E0,1.1082853E0,1.9991447E0,1.0012647E0,1.9160607E0,1.9483533E0,2.295608E0,-5.224634E-1,-2.6694766E-1,-1.0845804E-1,8.9834094E-1,-2.3034839E-2,5.733972E-1,8.214474E-1,1.7217956E0,-1.7651032E-1,3.0171907E-1,9.192217E-1,1.9537066E0,7.8020763E-1,1.4525801E0,1.7662399E0,2.2110586E0,-1.3707069E-1,3.8437384E-1,9.006975E-1,1.9904076E0,7.510449E-1,1.4135671E0,1.7485391E0,2.1854577E0,7.2626436E-1,1.4037439E0,1.5610831E0,2.1081371E0,1.6285269E0,2.105872E0,2.0686975E0,2.3132663E0,-4.5693827E-1,-6.087467E-1,-3.908768E-1,5.0345343E-2,-3.5989037E-1,1.7667422E-1,8.627773E-2,1.4868982E0,-1.9229779E-1,2.5521845E-1,1.621745E-1,8.9623654E-1,5.520546E-1,1.906033E0,1.2563689E0,2.0772946E0,-3.0700555E-1,3.4513142E-2,2.2637671E-1,1.5358361E0,1.2128146E0,2.3326571E-1,1.4891913E0,2.2386057E0,4.123199E-1,1.1523694E0,1.0996652E0,1.6803621E0,1.5471E0,2.304232E0,1.7951462E0,2.2520804E0,-2.8740716E-1,1.1478647E-1,9.6501015E-2,6.7512786E-1,4.310175E-1,1.2322906E0,8.778626E-1,2.1048744E0,1.0755582E0,4.1343078E-1,9.6548563E-1,1.5987117E0,1.5491201E0,2.2289155E0,8.77193E-2,2.190347E0,3.4728095E-1,1.012721E0,1.0393536E0,1.6904116E0,1.2647007E0,2.2237844E0,1.9886187E0,2.3261507E0,1.2091432E0,1.9153967E0,1.841119E0,2.1994848E0,1.5892713E0,2.3432012E0,2.342709E0,2.175117E0],"categories":[],"categories_nodes":[],"categories_segments":[],"categories_sizes":[],"default_left":[1,1,1,1,1,1,1,1,1,1,1,1,1,1,1,1,1,1,1,1,1,1,1,1,1,1,1,1,1,1,1,1,1,1,1,1,1,1,1,1,1,1,1,1,1,1,1,1,1,1,1,1,1,1,1,1,1,1,1,1,1,1,1,0,0,0,0,0,0,0,0,0,0,0,0,0,0,0,0,0,0,0,0,0,0,0,0,0,0,0,0,0,0,0,0,0,0,0,0,0,0,0,0,0,0,0,0,0,0,0,0,0,0,0,0,0,0,0,0,0,0,0,0,0,0,0,0],"id":3,"left_children":[1,3,5,7,9,11,13,15,17,19,21,23,25,27,29,31,33,35,37,39,41,43,45,47,49,51,53,55,57,59,61,63,65,67,69,71,73,75,77,79,81,83,85,87,89,91,93,95,97,99,101,103,105,107,109,111,113,115,117,119,121,123,125,-1,-1,-1,-1,-1,-1,-1,-1,-1,-1,-1,-1,-1,-1,-1,-1,-1,-1,-1,-1,-1,-1,-1,-1,-1,-1,-1,-1,-1,-1,-1,-1,-1,-1,-1,-1,-1,-1,-1,-1,-1,-1,-1,-1,-1,-1,-1,-1,-1,-1,-1,-1,-1,-1,-1,-1,-1,-1,-1,-1,-1,-1,-1,-1],"loss_changes":[5.432508E3,2.791511E3,2.807416E3,1.0966472E3,1.6065684E3,1.7264927E3,1.1016309E3,1.18435486E2,5.50427E2,4.311247E2,4.6524365E2,5.53853E2,4.9778662E2,5.2716504E2,1.1948242E2,5.487793E1,9.9124954E1,1.967836E2,1.4333728E2,9.581896E1,9.433862E1,2.1377588E2,4.384839E1,1.7031944E2,1.3494482E2,2.090686E2,3.985376E1,2.23005E2,5.935254E1,1.3332715E2,1.8310547E0,9.129883E0,6.718926E1,5.1225487E1,5.4032516E1,5.8934734E1,1.3164172E2,1.09566986E2,5.341455E1,1.957438E1,9.463084E1,6.513718E1,1.3018219E1,1.08710815E2,9.305127E1,4.6163574E1,5.6708984E0,4.92023E1,1.01235504E2,7.537781E1,1.7269836E1,9.705969E1,8.455249E1,3.5237305E1,5.2695312E0,1.3041376E2,8.3953735E1,6.1304688E1,1.0834473E1,1.0598584E2,4.0944336E1,1.3210815E1,1.1005859E0,0E0,0E0,0E0,0E0,0E0,0E0,0E0,0E0,0E0,0E0,0E0,0E0,0E0,0E0,0E0,0E0,0E0,0E0,0E0,0E0,0E0,0E0,0E0,0E0,0E0,0E0,0E0,0E0,0E0,0E0,0E0,0E0,0E0,0E0,0E0,0E0,0E0,0E0,0E0,0E0,0E0,0E0,0E0,0E0,0E0,0E0,0E0,0E0,0E0,0E0,0E0,0E0,0E0,0E0,0E0,0E0,0E0,0E0,0E0,0E0,0E0,0E0,0E0,0E0],"parents":[2147483647,0,0,1,1,2,2,3,3,4,4,5,5,6,6,7,7,8,8,9,9,10,10,11,11,12,12,13,13,14,14,15,15,16,16,17,17,18,18,19,19,20,20,21,21,22,22,23,23,24,24,25,25,26,26,27,27,28,28,29,29,30,30,31,31,32,32,33,33,34,34,35,35,36,36,37,37,38,38,39,39,40,40,41,41,42,42,43,43,44,44,45,45,46,46,47,47,48,48,49,49,50,50,51,51,52,52,53,53,54,54,55,55,56,56,57,57,58,58,59,59,60,60,61,61,62,62],"right_children":[2,4,6,8,10,12,14,16,18,20,22,24,26,28,30,32,34,36,38,40,42,44,46,48,50,52,54,56,58,60,62,64,66,68,70,72,74,76,78,80,82,84,86,88,90,92,94,96,98,100,102,104,106,108,110,112,114,116,118,120,122,124,126,-1,-1,-1,-1,-1,-1,-1,-1,-1,-1,-1,-1,-1,-1,-1,-1,-1,-1,-1,-1,-1,-1,-1,-1,-1,-1,-1,-1,-1,-1,-1,-1,-1,-1,-1,-1,-1,-1,-1,-1,-1,-1,-1,-1,-1,-1,-1,-1,-1,-1,-1,-1,-1,-1,-1,-1,-1,-1,-1,-1,-1,-1,-1,-1],"split_conditions":[2.922623E0,3.3430448E0,2.7970848E0,3.3392715E0,2.691793E0,3.0986617E0,2.6032553E0,3.8018143E0,3.5543375E0,3.7926064E0,3.0238402E0,3.8113132E0,3.0476768E0,3.1784508E0,2.7227442E0,2.1513786E0,3.799406E0,2.3156643E0,2.2215714E0,1.7948259E0,2.7295392E0,3.6234047E0,3.6684475E0,4.0014997E0,3.1099534E0,3.8815284E0,3.8291495E0,4.177108E0,3.5672069E0,3.400435E0,1.300342E0,2.0519025E0,2.695665E0,2.1840286E0,2.058514E0,2.1918426E0,1.8403182E0,3.3467326E0,1.8071494E0,2.0237362E0,4.2749386E0,1.1098099E0,1.6990352E0,1.9855647E0,1.765975E0,2.6428344E0,3.4746332E0,2.3084807E0,2.0955408E0,1.8557047E0,3.1461606E0,1.0895271E0,1.5223169E0,2.638459E0,9.990111E-1,3.7404914E0,3.7673154E0,2.59309E0,2.2231274E0,3.7044544E0,3.3979506E0,2.5449095E0,4.2900906E0,-1.3708149E-1,-1.8262401E-1,-1.1726304E-1,1.5103604E-2,-1.07967116E-1,5.3002268E-2,2.588332E-2,4.4606948E-1,-5.768934E-2,7.6565534E-2,4.865235E-2,2.6887098E-1,1.6561638E-1,5.7180995E-1,3.769107E-1,6.231884E-1,-9.210167E-2,1.0353943E-2,6.791302E-2,4.6075085E-1,3.638444E-1,6.997972E-2,4.467574E-1,6.7158175E-1,1.2369598E-1,3.457108E-1,3.2989955E-1,5.0410867E-1,4.6413E-1,6.912696E-1,5.385439E-1,6.7562413E-1,-8.622215E-2,3.4435943E-2,2.8950306E-2,2.0253837E-1,1.2930526E-1,3.696872E-1,2.6335877E-1,6.3146234E-1,3.2266748E-1,1.2402924E-1,2.896457E-1,4.7961354E-1,4.6473604E-1,6.6867465E-1,2.6315792E-2,6.5710413E-1,1.0418429E-1,3.038163E-1,3.1180608E-1,5.071235E-1,3.794102E-1,6.6713536E-1,5.9658563E-1,6.978452E-1,3.6274296E-1,5.7461905E-1,5.5233574E-1,6.598455E-1,4.767814E-1,7.029604E-1,7.0281273E-1,6.5253514E-1],"split_indices":[1,2,2,0,0,0,0,3,3,3,3,3,3,3,3,2,4,2,2,1,4,0,0,1,4,1,1,1,2,0,8,8,0,0,2,1,1,4,1,0,4,9,1,1,1,4,2,0,0,0,1,8,2,4,5,2,2,4,4,2,2,5,5,0,0,0,0,0,0,0,0,0,0,0,0,0,0,0,0,0,0,0,0,0,0,0,0,0,0,0,0,0,0,0,0,0,0,0,0,0,0,0,0,0,0,0,0,0,0,0,0,0,0,0,0,0,0,0,0,0,0,0,0,0,0,0,0],"split_type":[0,0,0,0,0,0,0,0,0,0,0,0,0,0,0,0,0,0,0,0,0,0,0,0,0,0,0,0,0,0,0,0,0,0,0,0,0,0,0,0,0,0,0,0,0,0,0,0,0,0,0,0,0,0,0,0,0,0,0,0,0,0,0,0,0,0,0,0,0,0,0,0,0,0,0,0,0,0,0,0,0,0,0,0,0,0,0,0,0,0,0,0,0,0,0,0,0,0,0,0,0,0,0,0,0,0,0,0,0,0,0,0,0,0,0,0,0,0,0,0,0,0,0,0,0,0,0],"sum_hessian":[2.5600002E4,1.2292801E4,1.3307201E4,7.1513604E3,5.1414404E3,6.0025605E3,7.3046406E3,4.1952E3,2.9561602E3,2.17632E3,2.96512E3,3.1424001E3,2.8601602E3,2.9408003E3,4.3638403E3,3.3702402E3,8.249601E2,2.2409602E3,7.152001E2,1.7299202E3,4.4640002E2,1.9760001E3,9.8912006E2,2.5068801E3,6.3552E2,1.9257601E3,9.344001E2,2.0230402E3,9.177601E2,2.7136E3,1.6502401E3,1.6630402E3,1.7072001E3,7.126401E2,1.1232001E2,1.24928E3,9.9168005E2,3.7760004E2,3.3760004E2,7.0944006E2,1.0204801E3,3.2384003E2,1.22560005E2,7.9648004E2,1.1795201E3,4.2080002E2,5.6832007E2,1.2976001E3,1.20928E3,4.8640002E2,1.4912001E2,8.889601E2,1.0368E3,4.0288004E2,5.3152E2,1.2035201E3,8.195201E2,3.2544003E2,5.9232007E2,8.992001E2,1.8144001E3,1.2768001E2,1.52256E3,9.4880005E2,7.1424005E2,1.2275201E3,4.7968002E2,3.7856003E2,3.3408002E2,4.7680004E1,6.464001E1,7.769601E2,4.7232004E2,4.3680002E2,5.5488007E2,3.0368002E2,7.3920006E1,1.4816E2,1.8944002E2,4.3808002E2,2.7136002E2,9.6288007E2,5.7600002E1,2.2624002E2,9.7600006E1,4.8960003E1,7.3600006E1,4.0160004E2,3.9488004E2,4.6496002E2,7.1456006E2,3.0176E2,1.1904001E2,5.5040005E1,5.1328E2,8.1248004E2,4.8512003E2,6.0832007E2,6.0096E2,2.0224002E2,2.8416003E2,1.4720001E1,1.3440001E2,4.5216003E2,4.3680002E2,3.0496002E2,7.3184E2,2.8768002E2,1.15200005E2,1.2800001E0,5.3024005E2,5.1904004E2,6.8448004E2,3.6288004E2,4.5664005E2,2.2688002E2,9.8560005E1,3.8912003E2,2.0320001E2,3.6736002E2,5.3184E2,4.7936005E2,1.33504E3,4.8960003E1,7.872001E1,1.24192E3,2.8064E2],"tree_param":{"num_deleted":"0","num_feature":"10","num_nodes":"127","size_leaf_vector":"0"}},{"base_weights":[-5.86188E-1,-5.1708686E-1,-6.1063254E-1,-3.372899E-1,-5.782334E-1,-5.817936E-1,-6.2227756E-1,-1.1356597E-2,-5.058664E-1,-5.11984E-1,-6.148444E-1,-4.680443E-1,-6.03455E-1,-6.042474E-1,-6.239708E-1,1.5193994E-1,-5.2759504E-1,-3.882704E-1,-5.814773E-1,-3.7600893E-1,-5.645688E-1,-5.873057E-1,-6.2311536E-1,-3.2663316E-1,-5.721432E-1,-5.6288326E-1,-6.193228E-1,-6.050686E-1,8.77193E-2,-1.2583461E-1,4.607899E-1,-3.0989823E-1,-6.185989E-1,-2.3544589E-1,-5.8075106E-1,-5.4912406E-1,-6.22854E-1,-2.2489053E-1,-6.018796E-1,-5.196272E-1,-6.1872095E-1,-4.929577E-1,-6.1532634E-1,-1.697983E-1,-5.786972E-1,-5.818911E-1,-3.7290713E-1,-4.3930545E-1,-5.943473E-1,-4.8172754E-1,-6.111249E-1,-3.9649844E-1,1.4222823E-1,1.2878524E-1,8.545758E-1,-5.6534505E-1,1.1764705E-1,-3.4806857E-1,1.6245486E-1,-5.953635E-1,-3.2679737E-2,-5.8910954E-1,-4.1928717E-1,-3.6809814E-1,2.180937E-1,-6.067619E-1,8.77193E-2,-4.2727143E-1,-5.791343E-1,-2.0618556E-1,-6.204303E-1,-3.8846615E-1,-6.171914E-1,-6.170242E-1,-0E0,-2.8219816E-1,3.0997303E-1,-5.8533144E-1,8.77193E-2,-5.927721E-1,-3.6661464E-1,6.164383E-1,-4.7619045E-1,-3.0518284E-1,-6.1101544E-1,-5.630211E-1,-6.219829E-1,5.2631575E-1,-5.1255935E-1,-6.1199445E-1,-0E0],"categories":[],"categories_nodes":[],"categories_segments":[],"categories_sizes":[],"default_left":[1,1,1,1,1,1,1,1,1,1,1,1,1,1,0,1,1,1,1,1,1,1,0,1,1,1,0,1,0,1,1,1,0,1,1,1,0,1,1,1,1,1,1,1,1,1,1,1,1,1,1,0,0,0,0,0,0,0,0,0,0,0,0,0,0,0,0,0,0,0,0,0,0,0,0,0,0,0,0,0,0,0,0,0,0,0,0,0,0,0,0],"id":4,"left_children":[1,3,5,7,9,11,13,15,17,19,21,23,25,27,-1,29,31,33,35,37,39,41,-1,43,45,47,-1,49,-1,51,53,55,-1,57,59,61,-1,63,65,67,69,71,73,75,77,79,81,83,85,87,89,-1,-1,-1,-1,-1,-1,-1,-1,-1,-1,-1,-1,-1,-1,-1,-1,-1,-1,-1,-1,-1,-1,-1,-1,-1,-1,-1,-1,-1,-1,-1,-1,-1,-1,-1,-1,-1,-1,-1,-1],"loss_changes":[4.292871E1,7.342444E1,5.9873047E0,9.3499146E1,1.180188E1,1.3154785E1,3.4179688E-2,4.9071926E1,9.747314E0,1.2544037E1,3.6572266E-1,1.2720856E1,2.5983887E0,7.27417E-1,0E0,3.800148E1,2.5794945E0,1.2863853E1,5.691986E-1,1.6948997E1,2.804596E0,1.7042847E0,0E0,1.4691605E1,7.6130676E-1,4.785675E0,0E0,5.910034E-1,0E0,1.7008125E1,2.7298012E1,4.788972E0,0E0,1.1171876E1,1.5415955E0,1.7799988E0,0E0,1.9205782E1,7.2673035E-1,3.6447296E0,2.7919006E-1,2.0828705E0,6.0746765E-1,1.2600517E1,6.839256E-1,9.033966E-1,2.9789083E0,5.9681206E0,5.4299927E-1,2.1407738E0,5.984497E-1,0E0,0E0,0E0,0E0,0E0,0E0,0E0,0E0,0E0,0E0,0E0,0E0,0E0,0E0,0E0,0E0,0E0,0E0,0E0,0E0,0E0,0E0,0E0,0E0,0E0,0E0,0E0,0E0,0E0,0E0,0E0,0E0,0E0,0E0,0E0,0E0,0E0,0E0,0E0,0E0],"parents":[2147483647,0,0,1,1,2,2,3,3,4,4,5,5,6,6,7,7,8,8,9,9,10,10,11,11,12,12,13,13,15,15,16,16,17,17,18,18,19,19,20,20,21,21,23,23,24,24,25,25,27,27,29,29,30,30,31,31,33,33,34,34,35,35,37,37,38,38,39,39,40,40,41,41,42,42,43,43,44,44,45,45,46,46,47,47,48,48,49,49,50,50],"right_children":[2,4,6,8,10,12,14,16,18,20,22,24,26,28,-1,30,32,34,36,38,40,42,-1,44,46,48,-1,50,-1,52,54,56,-1,58,60,62,-1,64,66,68,70,72,74,76,78,80,82,84,86,88,90,-1,-1,-1,-1,-1,-1,-1,-1,-1,-1,-1,-1,-1,-1,-1,-1,-1,-1,-1,-1,-1,-1,-1,-1,-1,-1,-1,-1,-1,-1,-1,-1,-1,-1,-1,-1,-1,-1,-1,-1],"split_conditions":[2.0549164E0,2.035923E0,2.1544814E0,2.417852E0,2.40521E0,1.6444638E0,1.3493428E0,3.5016103E0,3.457946E0,2.8253334E0,2.7237582E0,3.2880669E0,2.6134748E0,1.3491182E0,-1.8719125E-1,3.0879602E0,1.4205481E0,2.2736468E0,2.450127E0,2.6852918E0,2.1971045E0,3.020773E0,-1.8693462E-1,2.7995033E0,4.8312426E0,2.6808171E0,-1.8579684E-1,2.286471E0,2.6315792E-2,3.0080442E0,1.5749863E0,3.7233267E0,-1.8557967E-1,2.8863733E0,4.938821E0,2.792707E0,-1.8685621E-1,3.0364892E0,5.0441303E0,1.5400867E0,2.8446608E0,2.2258005E0,5.065975E0,4.2325215E0,4.945627E0,4.654304E0,3.456424E0,2.4686046E0,1.9361961E0,1.0101428E0,5.075172E0,-1.1894954E-1,4.266847E-2,3.8635574E-2,2.5637275E-1,-1.6960353E-1,3.5294116E-2,-1.0442057E-1,4.873646E-2,-1.7860906E-1,-9.803921E-3,-1.7673287E-1,-1.2578616E-1,-1.1042944E-1,6.542811E-2,-1.8202856E-1,2.6315792E-2,-1.2818143E-1,-1.737403E-1,-6.185567E-2,-1.861291E-1,-1.1653985E-1,-1.8515742E-1,-1.8510726E-1,-0E0,-8.465945E-2,9.299191E-2,-1.7559944E-1,2.6315792E-2,-1.7783165E-1,-1.099844E-1,1.849315E-1,-1.4285713E-1,-9.155486E-2,-1.8330464E-1,-1.6890635E-1,-1.8659487E-1,1.5789473E-1,-1.5376781E-1,-1.8359834E-1,-0E0],"split_indices":[5,6,6,7,7,7,7,8,7,6,6,5,7,7,0,1,7,8,8,8,8,7,0,8,0,5,0,6,0,0,3,1,0,3,0,3,0,3,2,7,6,8,2,2,2,3,5,8,8,7,0,0,0,0,0,0,0,0,0,0,0,0,0,0,0,0,0,0,0,0,0,0,0,0,0,0,0,0,0,0,0,0,0,0,0,0,0,0,0,0,0],"split_type":[0,0,0,0,0,0,0,0,0,0,0,0,0,0,0,0,0,0,0,0,0,0,0,0,0,0,0,0,0,0,0,0,0,0,0,0,0,0,0,0,0,0,0,0,0,0,0,0,0,0,0,0,0,0,0,0,0,0,0,0,0,0,0,0,0,0,0,0,0,0,0,0,0,0,0,0,0,0,0,0,0,0,0,0,0,0,0,0,0,0,0],"sum_hessian":[2.5600002E4,6.6953604E3,1.890464E4,1.7008002E3,4.9945605E3,5.4524805E3,1.3452161E4,5.8016003E2,1.1206401E3,1.7830402E3,3.2115203E3,8.758401E2,4.57664E3,1.1856001E3,1.2266561E4,4.4128003E2,1.3888E2,4.4096002E2,6.7968005E2,4.9952005E2,1.2835201E3,7.584E2,2.45312E3,3.7312003E2,5.0272003E2,1.2969601E3,3.2796802E3,1.1843201E3,1.2800001E0,2.3264001E2,2.0864001E2,4.224E1,9.664001E1,2.4704002E2,1.9392001E2,3.8944003E2,2.9024002E2,3.0048E2,1.9904001E2,7.072001E2,5.7632007E2,1.7792001E2,5.8048004E2,2.3104002E2,1.4208002E2,4.7744003E2,2.5280003E1,2.6624002E2,1.0307201E3,5.9200005E1,1.1251201E3,1.1552001E2,1.1712001E2,1.13920006E2,9.472001E1,2.6240002E1,1.6000002E1,1.9264001E2,5.4400005E1,1.8880002E2,5.1200004E0,2.9504E2,9.440001E1,2.2720001E2,7.328001E1,1.9776001E2,1.2800001E0,2.8032E2,4.2688004E2,2.88E0,5.7344006E2,9.8880005E1,7.904001E1,5.7888007E2,1.6000001E0,1.8752002E2,4.3520004E1,1.408E2,1.2800001E0,4.5280002E2,2.4640001E1,1.9200001E0,2.3360003E1,1.5104001E2,1.15200005E2,4.9312003E2,5.3760004E2,1.2800001E0,5.7920006E1,1.12352E3,1.6000001E0],"tree_param":{"num_deleted":"0","num_feature":"10","num_nodes":"91","size_leaf_vector":"0"}},{"base_weights":[-5.928157E-1],"categories":[],"categories_nodes":[],"categories_segments":[],"categories_sizes":[],"default_left":[0],"id":5,"left_children":[-1],"loss_changes":[0E0],"parents":[2147483647],"right_children":[-1],"split_conditions":[-1.7784472E-1],"split_indices":[0],"split_type":[0],"sum_hessian":[2.1411936E4],"tree_param":{"num_deleted":"0","num_feature":"10","num_nodes":"1","size_leaf_vector":"0"}},{"base_weights":[-4.6793512E-1,-3.3387926E-1,-5.309399E-1,-9.305186E-2,-4.6492496E-1,-4.4780928E-1,-5.5891246E-1,3.889314E-1,-2.8467795E-1,-2.8168124E-1,-5.213103E-1,-2.1624395E-1,-4.95254E-1,-5.7231045E-1,-4.9731266E-1,6.3100433E-1,-2.4636498E-1,-7.463713E-2,-4.2485312E-1,-4.058121E-2,-4.1782346E-1,-5.5758613E-1,-4.182234E-1,5.7012558E-2,-4.3326855E-1,-5.23283E-1,-3.281947E-1,-5.282386E-1,-5.814536E-1,-5.337072E-1,-3.184405E-1,3.790403E-1,8.508685E-1,-3.2236147E-1,3.5914725E-1,1.15435265E-1,-5.306185E-1,-4.632874E-1,-1.6679125E-1,1.3740051E-1,-4.781239E-1,-3.279028E-1,-5.348908E-1,-5.086153E-1,-5.765388E-1,-5.0142175E-1,-1.35937E-1,2.5912112E-1,-5.001336E-1,-3.3560264E-1,-5.406667E-1,-4.1175413E-1,-5.5126065E-1,-4.4805586E-1,1.600902E-2,-4.0094826E-1,-5.4921424E-1,-5.8854234E-1,-5.5705297E-1,-5.693906E-1,-4.4923747E-1,-5.2468184E-2,-4.6751758E-1,5.345555E-1,2.3608553E-1,9.8573434E-1,-2.6291588E-1,-3.779048E-1,2.793706E-1,9.180178E-1,-1.5611568E-1,3.06592E-1,-1.3492835E-1,-5.397057E-1,3.9170152E-1,-3.837312E-1,-5.4201627E-1,-3.511981E-1,2.597426E-1,-1.07618295E-1,3.6805E-1,-5.7762647E-1,-1.393399E-1,-1.0544292E-1,-4.224772E-1,-5.5037296E-1,-6.504679E-3,-3.9437696E-1,-5.66524E-1,-5.775699E-1,3.5665542E-1,-5.2253914E-1,-2.1846296E-1,-3.8060704E-1,2.1946797E-1,3.3828884E-1,-5.402437E-1,-5.246909E-1,6.548676E-1,-3.5748944E-1,6.7758757E-1,-5.6286585E-1,4.507695E-3,-2.1487583E-1,-5.17379E-1,-5.6697994E-1,-4.3542075E-1,-4.6356055E-1,3.878163E-1,-3.605459E-1,4.126984E-1,-2.2519702E-1,-5.5387414E-1,-5.656098E-1,-4.08902E-1,-5.896549E-1,-5.2517277E-1,-5.872332E-1,-5.162435E-1,-1.3722336E-1,-5.709955E-1,-5.378643E-1,-2.8939202E-1,-3.475884E-1,4.199324E-1,-4.931747E-1,-6.54772E-2],"categories":[],"categories_nodes":[],"categories_segments":[],"categories_sizes":[],"default_left":[1,1,1,1,1,1,1,1,1,1,1,1,1,1,1,1,1,1,1,1,1,1,1,1,1,1,1,1,1,1,1,1,1,1,1,1,1,1,1,1,1,1,1,1,1,1,1,1,1,1,1,1,1,1,1,1,1,1,1,1,1,1,1,0,0,0,0,0,0,0,0,0,0,0,0,0,0,0,0,0,0,0,0,0,0,0,0,0,0,0,0,0,0,0,0,0,0,0,0,0,0,0,0,0,0,0,0,0,0,0,0,0,0,0,0,0,0,0,0,0,0,0,0,0,0,0,0],"id":6,"left_children":[1,3,5,7,9,11,13,15,17,19,21,23,25,27,29,31,33,35,37,39,41,43,45,47,49,51,53,55,57,59,61,63,65,67,69,71,73,75,77,79,81,83,85,87,89,91,93,95,97,99,101,103,105,107,109,111,113,115,117,119,121,123,125,-1,-1,-1,-1,-1,-1,-1,-1,-1,-1,-1,-1,-1,-1,-1,-1,-1,-1,-1,-1,-1,-1,-1,-1,-1,-1,-1,-1,-1,-1,-1,-1,-1,-1,-1,-1,-1,-1,-1,-1,-1,-1,-1,-1,-1,-1,-1,-1,-1,-1,-1,-1,-1,-1,-1,-1,-1,-1,-1,-1,-1,-1,-1,-1],"loss_changes":[1.8582764E2,2.2225348E2,3.4583008E1,2.294814E2,4.6982178E1,4.138336E1,8.962402E0,1.08868164E2,5.2303146E1,3.5284134E1,1.2806213E1,3.8213257E1,1.4500977E1,3.3986816E0,1.2909912E1,2.8048996E1,9.123941E0,6.1828373E1,1.0494293E1,3.0376953E1,7.058998E0,2.0977783E0,2.1342056E1,3.2326626E1,3.584381E0,8.140564E0,1.8691753E1,4.0275574E0,9.8779297E-1,4.771942E0,1.3542641E1,5.2194595E0,4.1220093E1,5.9362698E0,6.565642E0,2.4153688E1,1.9702339E0,5.5989532E0,1.1081573E1,1.5719851E1,3.7210217E0,8.1873665E0,2.4257812E0,4.5881805E0,1.986084E0,4.0908813E0,1.8248203E1,1.350257E1,2.5121346E0,4.470352E0,2.0521317E0,1.1154572E1,3.6515503E0,4.533638E0,1.7766039E1,6.0241356E0,2.9046936E0,1.0461426E-1,1.8286743E0,7.3236084E-1,6.929283E0,1.7437145E1,2.2282143E0,0E0,0E0,0E0,0E0,0E0,0E0,0E0,0E0,0E0,0E0,0E0,0E0,0E0,0E0,0E0,0E0,0E0,0E0,0E0,0E0,0E0,0E0,0E0,0E0,0E0,0E0,0E0,0E0,0E0,0E0,0E0,0E0,0E0,0E0,0E0,0E0,0E0,0E0,0E0,0E0,0E0,0E0,0E0,0E0,0E0,0E0,0E0,0E0,0E0,0E0,0E0,0E0,0E0,0E0,0E0,0E0,0E0,0E0,0E0,0E0,0E0,0E0,0E0,0E0],"parents":[2147483647,0,0,1,1,2,2,3,3,4,4,5,5,6,6,7,7,8,8,9,9,10,10,11,11,12,12,13,13,14,14,15,15,16,16,17,17,18,18,19,19,20,20,21,21,22,22,23,23,24,24,25,25,26,26,27,27,28,28,29,29,30,30,31,31,32,32,33,33,34,34,35,35,36,36,37,37,38,38,39,39,40,40,41,41,42,42,43,43,44,44,45,45,46,46,47,47,48,48,49,49,50,50,51,51,52,52,53,53,54,54,55,55,56,56,57,57,58,58,59,59,60,60,61,61,62,62],"right_children":[2,4,6,8,10,12,14,16,18,20,22,24,26,28,30,32,34,36,38,40,42,44,46,48,50,52,54,56,58,60,62,64,66,68,70,72,74,76,78,80,82,84,86,88,90,92,94,96,98,100,102,104,106,108,110,112,114,116,118,120,122,124,126,-1,-1,-1,-1,-1,-1,-1,-1,-1,-1,-1,-1,-1,-1,-1,-1,-1,-1,-1,-1,-1,-1,-1,-1,-1,-1,-1,-1,-1,-1,-1,-1,-1,-1,-1,-1,-1,-1,-1,-1,-1,-1,-1,-1,-1,-1,-1,-1,-1,-1,-1,-1,-1,-1,-1,-1,-1,-1,-1,-1,-1,-1,-1,-1],"split_conditions":[2.2363696E0,2.3308196E0,1.9902735E0,2.0443792E0,1.9227407E0,1.6672351E0,4.290843E0,3.097426E0,3.16433E0,3.2113447E0,3.962781E0,3.42762E0,4.4473457E0,1.6787953E0,4.320794E0,9.874554E-1,4.2902517E0,3.0593743E0,4.5268383E0,3.1436973E0,2.3085165E0,2.7899094E0,4.069417E0,3.1488533E0,2.182542E0,2.7773151E0,4.006934E0,2.6309729E0,4.0886564E0,3.8491578E0,2.351152E0,1.4980142E0,3.7380245E0,4.6370416E0,2.532219E0,1.7572231E0,4.9843063E0,1.903125E0,3.8415918E0,1.2441345E0,4.1024017E0,3.7444906E0,4.882705E0,3.2809505E0,5.1041136E0,4.637743E0,3.5492392E0,3.6588507E0,4.9280167E0,4.911194E0,4.8480434E0,2.7471826E0,4.509818E0,4.970377E0,3.1988745E0,1.7599206E0,4.5824733E0,4.8862033E0,3.285291E0,1.0188739E0,3.2170174E0,3.5172381E0,4.1692944E0,1.6036665E-1,7.0825666E-2,2.957203E-1,-7.887477E-2,-1.1337145E-1,8.3811186E-2,2.7540535E-1,-4.6834707E-2,9.19776E-2,-4.0478505E-2,-1.6191171E-1,1.1751046E-1,-1.1511936E-1,-1.6260488E-1,-1.05359435E-1,7.792278E-2,-3.228549E-2,1.10415004E-1,-1.7328794E-1,-4.180197E-2,-3.1632878E-2,-1.2674317E-1,-1.651119E-1,-1.9514038E-3,-1.183131E-1,-1.6995722E-1,-1.7327097E-1,1.0699663E-1,-1.5676175E-1,-6.553889E-2,-1.14182115E-1,6.584039E-2,1.0148666E-1,-1.620731E-1,-1.5740728E-1,1.9646029E-1,-1.0724684E-1,2.0327628E-1,-1.6885976E-1,1.3523086E-3,-6.446275E-2,-1.552137E-1,-1.7009398E-1,-1.3062623E-1,-1.3906817E-1,1.163449E-1,-1.08163774E-1,1.23809524E-1,-6.755911E-2,-1.6616225E-1,-1.6968295E-1,-1.226706E-1,-1.7689648E-1,-1.5755184E-1,-1.7616996E-1,-1.5487306E-1,-4.116701E-2,-1.7129865E-1,-1.6135931E-1,-8.681761E-2,-1.0427652E-1,1.2597972E-1,-1.4795242E-1,-1.9643161E-2],"split_indices":[0,1,2,2,2,1,5,3,2,1,6,0,7,1,6,8,9,3,7,3,3,2,5,3,3,0,5,0,7,7,1,2,4,7,4,1,5,3,6,8,6,1,6,1,7,8,7,4,9,5,6,1,5,6,6,3,7,8,6,1,6,7,9,0,0,0,0,0,0,0,0,0,0,0,0,0,0,0,0,0,0,0,0,0,0,0,0,0,0,0,0,0,0,0,0,0,0,0,0,0,0,0,0,0,0,0,0,0,0,0,0,0,0,0,0,0,0,0,0,0,0,0,0,0,0,0,0],"split_type":[0,0,0,0,0,0,0,0,0,0,0,0,0,0,0,0,0,0,0,0,0,0,0,0,0,0,0,0,0,0,0,0,0,0,0,0,0,0,0,0,0,0,0,0,0,0,0,0,0,0,0,0,0,0,0,0,0,0,0,0,0,0,0,0,0,0,0,0,0,0,0,0,0,0,0,0,0,0,0,0,0,0,0,0,0,0,0,0,0,0,0,0,0,0,0,0,0,0,0,0,0,0,0,0,0,0,0,0,0,0,0,0,0,0,0,0,0,0,0,0,0,0,0,0,0,0,0],"sum_hessian":[2.2021418E4,7.042761E3,1.4978656E4,2.4824265E3,4.560335E3,3.7754768E3,1.120318E4,7.0589935E2,1.7765272E3,1.0744694E3,3.4858655E3,6.429525E2,3.1325244E3,9.194976E3,2.0082037E3,5.1114117E2,1.9475818E2,7.116745E2,1.0648527E3,3.8823163E2,6.862378E2,2.5752407E3,9.106248E2,2.849315E2,3.5802106E2,2.680638E3,4.518864E2,1.5899353E3,7.60504E3,1.6670338E3,3.4116995E2,2.3945271E2,2.7168848E2,1.7345575E2,2.1302423E1,5.0282327E2,2.0885126E2,9.261255E2,1.3872722E2,2.7646027E2,1.1177135E2,3.9026895E2,2.959688E2,7.2633496E2,1.8489058E3,7.0273206E2,2.078927E2,2.0947714E2,7.5454346E1,1.8966663E2,1.6835443E2,5.4074585E2,2.139892E3,3.34947E2,1.1693943E2,2.2777878E2,1.3621566E3,5.875107E3,1.729933E3,1.167918E3,4.9911578E2,1.23026726E2,2.1814323E2,1.13375916E2,1.260768E2,2.4244615E2,2.9242327E1,1.5913835E2,1.431741E1,9.843836E0,1.1458588E1,2.8499802E2,2.1782524E2,2.0722441E2,1.6268481E0,4.6356403E2,4.6256143E2,9.697699E1,4.1750233E1,1.3431305E2,1.4214723E2,8.5851364E1,2.5919981E1,1.17051926E2,2.7321704E2,2.875031E2,8.465714E0,2.4695982E2,4.7937515E2,1.8472457E3,1.6600145E0,6.531411E2,4.959095E1,1.2308611E2,8.480659E1,1.9112523E2,1.8351915E1,7.4417816E1,1.0365282E0,1.8628958E2,3.3770342E0,1.6173619E2,6.6182485E0,1.8987141E2,3.5087442E2,1.8807788E3,2.5911328E2,3.2928445E2,5.6625266E0,6.0038944E1,5.6900486E1,1.0713065E2,1.20648125E2,1.2169265E3,1.4523006E2,5.76558E3,1.0952696E2,9.8678076E2,7.431523E2,4.6411576E0,1.1632769E3,3.1956622E2,1.7954956E2,7.588421E1,4.7142513E1,2.0484396E2,1.3299265E1],"tree_param":{"num_deleted":"0","num_feature":"10","num_nodes":"127","size_leaf_vector":"0"}},{"base_weights":[5.6281424E-1,7.297186E-1,2.3877245E-1,8.5833544E-1,4.1068652E-1,6.0226494E-1,-1.1201061E-2,9.460109E-1,5.3975904E-1,6.9622314E-1,2.1639489E-2,8.1345165E-1,1.215809E-1,3.8045758E-1,-2.3226635E-1,9.8183984E-1,7.120607E-1,7.130761E-1,1.2732661E-1,8.5649073E-1,2.4579877E-1,2.0968024E-1,-3.1842753E-1,8.987893E-1,1.6466023E-1,3.5548693E-1,-2.8341043E-1,5.366249E-1,-1.7038016E-1,-7.801812E-2,-3.9392245E-1,9.2549366E-1,1.0252631E0,9.098058E-1,2.7902314E-1,4.9739602E-1,9.28888E-1,4.792052E-1,-1.9350329E-1,6.411738E-1,1.111505E0,4.174252E-1,-2.512344E-1,4.0864077E-1,-1.12230144E-1,-5.355544E-2,-4.35337E-1,9.4953144E-1,3.1310716E-1,5.071416E-1,-8.5623905E-2,1.6583018E-1,5.827041E-1,1.738091E-2,-3.872523E-1,6.083886E-1,-2.2181557E-1,-2.4548963E-2,-4.6198595E-1,5.966898E-2,-4.3036178E-1,-4.4976556E-1,-2.0830022E-1,9.1349065E-1,1.2765203E0,1.0513865E0,7.386144E-1,1.0028968E0,1.0273615E-1,7.393902E-1,2.7625402E-2,8.095859E-1,3.1721428E-1,1.0674464E0,9.7900696E-2,8.554144E-1,1.0153342E-1,6.780665E-2,-4.1433975E-1,7.885129E-1,3.4030715E-1,1.2190436E0,4.3867376E-1,2.084329E-1,8.4919065E-1,5.2828938E-2,-4.134719E-1,1.5790726E-1,7.154132E-1,-2.6864147E-1,7.501495E-2,3.1491682E-1,-2.4722108E-1,-4.5524725E-1,6.468758E-2,7.172586E-1,1.1158284E0,1.1267959E0,-7.231819E-2,6.740813E-1,-4.345523E-1,8.400267E-2,-4.655962E-1,3.6631805E-1,-2.5003122E-2,7.157919E-1,-2.2779906E-1,4.8167247E-1,-1.8925357E-1,-2.0704377E-1,-4.7001973E-1,2.962784E-1,8.9784104E-1,3.3139795E-1,-4.1261533E-1,-1.5356626E-1,5.2576363E-1,-4.9795136E-1,-6.544494E-3,2.954405E-1,-1.7723581E-1,-4.9545524E-1,-1.7259128E-1,-3.1793237E-1,-5.0855017E-1,-3.3122465E-1,2.3694256E-1],"categories":[],"categories_nodes":[],"categories_segments":[],"categories_sizes":[],"default_left":[1,1,1,1,1,1,1,1,1,1,1,1,1,1,1,1,1,1,1,1,1,1,1,1,1,1,1,1,1,1,1,1,1,1,1,1,1,1,1,1,1,1,1,1,1,1,1,1,1,1,1,1,1,1,1,1,1,1,1,1,1,1,1,0,0,0,0,0,0,0,0,0,0,0,0,0,0,0,0,0,0,0,0,0,0,0,0,0,0,0,0,0,0,0,0,0,0,0,0,0,0,0,0,0,0,0,0,0,0,0,0,0,0,0,0,0,0,0,0,0,0,0,0,0,0,0,0],"id":7,"left_children":[1,3,5,7,9,11,13,15,17,19,21,23,25,27,29,31,33,35,37,39,41,43,45,47,49,51,53,55,57,59,61,63,65,67,69,71,73,75,77,79,81,83,85,87,89,91,93,95,97,99,101,103,105,107,109,111,113,115,117,119,121,123,125,-1,-1,-1,-1,-1,-1,-1,-1,-1,-1,-1,-1,-1,-1,-1,-1,-1,-1,-1,-1,-1,-1,-1,-1,-1,-1,-1,-1,-1,-1,-1,-1,-1,-1,-1,-1,-1,-1,-1,-1,-1,-1,-1,-1,-1,-1,-1,-1,-1,-1,-1,-1,-1,-1,-1,-1,-1,-1,-1,-1,-1,-1,-1,-1],"loss_changes":[1.6029629E3,8.02416E2,9.1578235E2,3.8890918E2,6.246253E2,4.1680054E2,5.1722363E2,9.093359E1,2.1515717E2,2.3388672E2,1.5233067E2,1.5781604E2,1.1896218E2,1.8549661E2,9.518344E1,2.2239258E1,1.24380066E2,9.8217285E1,1.00817154E2,1.3059717E2,7.2821945E1,9.8287384E1,2.6243004E1,7.462988E1,2.8576708E1,3.4197525E1,1.4372459E1,9.154587E1,2.0266146E1,9.4881226E1,1.9230255E1,1.6256836E1,3.9234375E1,7.4934204E1,5.29541E1,5.9509216E1,1.2177557E2,6.0412766E1,2.7000662E1,5.7315186E1,7.858008E1,5.703444E1,1.0846113E1,7.282028E1,1.720279E1,1.8694767E1,5.8867645E0,8.880078E1,6.3591118E1,2.2411003E1,1.2490248E1,1.6658094E1,3.917428E1,1.1506832E1,5.0028343E0,1.3836768E2,1.5537739E1,2.2724371E1,2.5996933E0,7.862703E1,9.134682E0,1.0937714E1,2.377685E1,0E0,0E0,0E0,0E0,0E0,0E0,0E0,0E0,0E0,0E0,0E0,0E0,0E0,0E0,0E0,0E0,0E0,0E0,0E0,0E0,0E0,0E0,0E0,0E0,0E0,0E0,0E0,0E0,0E0,0E0,0E0,0E0,0E0,0E0,0E0,0E0,0E0,0E0,0E0,0E0,0E0,0E0,0E0,0E0,0E0,0E0,0E0,0E0,0E0,0E0,0E0,0E0,0E0,0E0,0E0,0E0,0E0,0E0,0E0,0E0,0E0,0E0,0E0,0E0],"parents":[2147483647,0,0,1,1,2,2,3,3,4,4,5,5,6,6,7,7,8,8,9,9,10,10,11,11,12,12,13,13,14,14,15,15,16,16,17,17,18,18,19,19,20,20,21,21,22,22,23,23,24,24,25,25,26,26,27,27,28,28,29,29,30,30,31,31,32,32,33,33,34,34,35,35,36,36,37,37,38,38,39,39,40,40,41,41,42,42,43,43,44,44,45,45,46,46,47,47,48,48,49,49,50,50,51,51,52,52,53,53,54,54,55,55,56,56,57,57,58,58,59,59,60,60,61,61,62,62],"right_children":[2,4,6,8,10,12,14,16,18,20,22,24,26,28,30,32,34,36,38,40,42,44,46,48,50,52,54,56,58,60,62,64,66,68,70,72,74,76,78,80,82,84,86,88,90,92,94,96,98,100,102,104,106,108,110,112,114,116,118,120,122,124,126,-1,-1,-1,-1,-1,-1,-1,-1,-1,-1,-1,-1,-1,-1,-1,-1,-1,-1,-1,-1,-1,-1,-1,-1,-1,-1,-1,-1,-1,-1,-1,-1,-1,-1,-1,-1,-1,-1,-1,-1,-1,-1,-1,-1,-1,-1,-1,-1,-1,-1,-1,-1,-1,-1,-1,-1,-1,-1,-1,-1,-1,-1,-1,-1],"split_conditions":[3.508944E0,3.744414E0,2.4710538E0,4.062554E0,3.0956478E0,3.6040845E0,2.2699966E0,4.1524725E0,3.0211654E0,3.267887E0,2.673061E0,4.1929502E0,2.5897012E0,3.5391397E0,3.5945756E0,1.2329965E0,3.0273888E0,9.9443805E-1,2.0866275E0,1.4942658E0,2.7582417E0,2.4631438E0,1.761044E0,3.8610647E0,2.004321E0,1.0826386E0,3.8477488E0,3.7169092E0,2.2386584E0,3.134063E0,4.107622E0,2.68505E0,4.314083E0,3.916204E0,1.7829517E0,1.930524E0,3.847872E0,2.284165E0,2.1384978E0,2.593014E0,3.821032E0,1.0081329E0,1.7738485E0,1.0282712E0,1.0513377E0,3.4713578E0,4.818418E0,4.8766765E-1,1.9898262E0,3.4994092E0,2.4266794E0,4.2705426E0,3.4326997E0,3.253227E0,3.2168374E0,1.0309284E0,1.656297E0,1.5186579E0,4.7025814E0,3.633608E0,4.2710395E0,3.2316241E0,4.1172867E0,2.740472E-1,3.829561E-1,3.1541595E-1,2.2158432E-1,3.0086905E-1,3.0820847E-2,2.2181706E-1,8.287621E-3,2.4287578E-1,9.516429E-2,3.202339E-1,2.937021E-2,2.5662434E-1,3.0460028E-2,2.0341996E-2,-1.2430193E-1,2.3655388E-1,1.0209215E-1,3.657131E-1,1.3160214E-1,6.252987E-2,2.547572E-1,1.5848681E-2,-1.2404158E-1,4.737218E-2,2.1462397E-1,-8.0592446E-2,2.2504486E-2,9.447505E-2,-7.416633E-2,-1.3657418E-1,1.9406274E-2,2.1517758E-1,3.3474854E-1,3.3803877E-1,-2.1695457E-2,2.022244E-1,-1.303657E-1,2.5200803E-2,-1.3967887E-1,1.09895416E-1,-7.5009367E-3,2.1473758E-1,-6.833972E-2,1.4450175E-1,-5.6776073E-2,-6.2113132E-2,-1.4100592E-1,8.888352E-2,2.6935232E-1,9.941939E-2,-1.237846E-1,-4.606988E-2,1.5772909E-1,-1.4938541E-1,-1.9633484E-3,8.863215E-2,-5.3170744E-2,-1.4863658E-1,-5.177739E-2,-9.537972E-2,-1.5256506E-1,-9.93674E-2,7.108277E-2],"split_indices":[1,2,2,0,0,0,0,3,3,3,3,3,3,3,0,3,0,8,1,8,4,1,1,4,0,8,1,4,4,3,7,4,4,4,1,2,4,2,2,1,4,4,1,8,8,3,8,3,3,4,4,0,4,3,3,8,3,9,6,2,5,2,6,0,0,0,0,0,0,0,0,0,0,0,0,0,0,0,0,0,0,0,0,0,0,0,0,0,0,0,0,0,0,0,0,0,0,0,0,0,0,0,0,0,0,0,0,0,0,0,0,0,0,0,0,0,0,0,0,0,0,0,0,0,0,0,0],"split_type":[0,0,0,0,0,0,0,0,0,0,0,0,0,0,0,0,0,0,0,0,0,0,0,0,0,0,0,0,0,0,0,0,0,0,0,0,0,0,0,0,0,0,0,0,0,0,0,0,0,0,0,0,0,0,0,0,0,0,0,0,0,0,0,0,0,0,0,0,0,0,0,0,0,0,0,0,0,0,0,0,0,0,0,0,0,0,0,0,0,0,0,0,0,0,0,0,0,0,0,0,0,0,0,0,0,0,0,0,0,0,0,0,0,0,0,0,0,0,0,0,0,0,0,0,0,0,0],"sum_hessian":[2.9640598E4,1.9563012E4,1.0077586E4,1.3941036E4,5.6219756E3,4.105814E3,5.971772E3,1.09308E4,3.010236E3,3.24186E3,2.3801157E3,2.8520737E3,1.2537401E3,2.1543015E3,3.8174705E3,9.476324E3,1.4544753E3,2.1190261E3,8.912101E2,2.390414E3,8.51446E2,1.5328864E3,8.4722925E2,2.5201987E3,3.318752E2,7.9481213E2,4.5892798E2,1.6784672E3,4.7583435E2,1.9542532E3,1.8632172E3,4.134149E3,5.342176E3,9.977537E2,4.5672165E2,1.0614897E3,1.0575364E3,4.2480283E2,4.664073E2,1.2979915E3,1.0924225E3,6.3302246E2,2.1842357E2,9.4719305E2,5.8569336E2,2.5988574E2,5.873435E2,2.3186912E3,2.0150745E2,1.3969478E2,1.9218044E2,4.3415527E2,3.6065686E2,1.1798932E2,3.4093866E2,1.5335594E3,1.4490773E2,3.1792514E2,1.5790923E2,1.4057513E3,5.485019E2,1.4312216E3,4.3199564E2,4.0009429E3,1.332061E2,4.8935415E3,4.4863446E2,8.943525E2,1.0340126E2,1.6063004E2,2.960916E2,3.871703E2,6.743194E2,9.061593E2,1.51377E2,2.1217976E2,2.1262305E2,2.1394492E2,2.5246237E2,8.702135E2,4.2777795E2,9.411817E2,1.5124081E2,4.2755228E2,2.0547017E2,7.6229546E1,1.4219403E2,5.220346E2,4.2515848E2,3.188848E2,2.6680853E2,8.931917E1,1.7056657E2,5.6493805E2,2.2405458E1,9.696538E2,1.3490374E3,6.415129E1,1.3735616E2,1.1890072E2,2.0794064E1,1.3340495E2,5.8775482E1,2.1127353E2,2.2288176E2,3.098888E2,5.076807E1,3.5928883E1,8.206044E1,1.0840698E2,2.3253168E2,7.388727E2,7.9468677E2,3.6972137E1,1.079356E2,2.581293E2,5.979583E1,1.4626556E2,1.1643664E1,7.04437E2,7.0131433E2,4.3718082E2,1.1132107E2,4.433508E2,9.878707E2,3.3873297E2,9.326267E1],"tree_param":{"num_deleted":"0","num_feature":"10","num_nodes":"127","size_leaf_vector":"0"}},{"base_weights":[6.0613E-1,2.4437496E-1,7.959935E-1,-9.036804E-2,5.459638E-1,4.1776943E-1,9.55649E-1,-3.134657E-1,2.967023E-1,2.9949699E-2,7.5010973E-1,1.16249524E-1,7.860868E-1,5.2292484E-1,1.0544182E0,-3.7788254E-1,4.8148863E-2,8.794023E-2,6.741928E-1,-1.6120471E-1,4.1215572E-1,5.932582E-1,1.0761119E0,-4.8773815E-3,7.054521E-1,5.7038015E-1,1.0514144E0,3.5277832E-1,9.7390187E-1,9.6184427E-1,1.2028286E0,-4.7932938E-1,-2.2121044E-1,-9.220605E-2,9.5417583E-1,3.4437564E-1,-1.6128746E-1,4.924849E-1,1.19932E0,4.7796436E-2,-4.1349867E-1,2.6913592E-1,1.0856197E0,8.3182657E-1,3.792139E-1,9.669064E-1,1.3171751E0,-2.3420669E-1,2.0821403E-1,3.7967277E-1,9.863573E-1,7.91675E-1,2.3641239E-1,9.635855E-1,1.3242873E0,3.1384107E-2,5.2410096E-1,8.1231374E-1,1.2093611E0,1.124175E0,7.7561724E-1,1.154575E0,1.2875569E0,-3.137127E-1,-5.1615185E-1,-3.6094528E-1,4.464458E-2,-2.5118285E-1,3.1023988E-1,1.09258935E-1,1.3144405E0,3.2445736E-2,4.896365E-1,-2.5406343E-1,1.1190114E0,7.574181E-1,-2.1430016E-2,9.0865254E-1,1.4885259E0,-1.3291803E-1,2.7630118E-1,-4.6667498E-1,1.0509268E-1,6.1263952E-2,7.234602E-1,2.993827E-1,1.2390919E0,6.4024407E-1,1.0786736E0,2.0258816E-1,1.1669203E0,1.0915672E0,6.10045E-1,1.5893291E0,1.2858616E0,-3.3990794E-1,2.3153305E-2,1.4167297E-1,9.6054316E-1,1.4799063E-1,1.0370646E0,-1.99674E-1,1.0346487E0,5.9428E-1,1.0075679E0,1.20419405E-1,1.1901797E0,1.1153512E0,6.491118E-1,1.336443E0,1.6043374E-1,-1.9409792E-1,2.5082433E-1,4.649043E-1,1.3799757E0,6.345158E-1,1.2452914E0,1.2314094E0,3.718052E-1,1.007034E0,1.2273873E0,6.278101E-1,1.2744527E0,1.2161463E0,9.458688E-1,1.3096637E0,1.1933783E0],"categories":[],"categories_nodes":[],"categories_segments":[],"categories_sizes":[],"default_left":[1,1,1,1,1,1,1,1,1,1,1,1,1,1,1,1,1,1,1,1,1,1,1,1,1,1,1,1,1,1,1,1,1,1,1,1,1,1,1,1,1,1,1,1,1,1,1,1,1,1,1,1,1,1,1,1,1,1,1,1,1,1,1,0,0,0,0,0,0,0,0,0,0,0,0,0,0,0,0,0,0,0,0,0,0,0,0,0,0,0,0,0,0,0,0,0,0,0,0,0,0,0,0,0,0,0,0,0,0,0,0,0,0,0,0,0,0,0,0,0,0,0,0,0,0,0,0],"id":8,"left_children":[1,3,5,7,9,11,13,15,17,19,21,23,25,27,29,31,33,35,37,39,41,43,45,47,49,51,53,55,57,59,61,63,65,67,69,71,73,75,77,79,81,83,85,87,89,91,93,95,97,99,101,103,105,107,109,111,113,115,117,119,121,123,125,-1,-1,-1,-1,-1,-1,-1,-1,-1,-1,-1,-1,-1,-1,-1,-1,-1,-1,-1,-1,-1,-1,-1,-1,-1,-1,-1,-1,-1,-1,-1,-1,-1,-1,-1,-1,-1,-1,-1,-1,-1,-1,-1,-1,-1,-1,-1,-1,-1,-1,-1,-1,-1,-1,-1,-1,-1,-1,-1,-1,-1,-1,-1,-1],"loss_changes":[2.0635898E3,1.0442847E3,1.1894922E3,4.2350592E2,5.731863E2,6.496543E2,5.916201E2,7.248395E1,1.4126175E2,1.128374E2,1.9872632E2,2.2968265E2,1.5011963E2,1.9737604E2,1.5380957E2,4.1864136E1,6.0016308E1,7.392707E1,6.0328278E1,5.431279E1,4.930076E1,1.3421716E2,3.203589E1,1.3054808E2,4.984659E1,1.0732526E2,2.6996826E1,1.03085205E2,2.5852112E1,2.0927344E2,1.6212402E1,9.607452E0,3.863992E1,2.6243189E1,1.91246E1,2.581186E1,6.999039E1,6.482576E1,1.2385483E1,2.3328115E1,1.2916672E1,4.0189896E1,1.0472076E1,5.819104E1,1.9322308E2,3.8240417E1,1.2946167E0,3.500991E1,6.918584E1,3.879463E1,1.7049042E1,3.6670532E1,6.4154526E1,4.204492E1,3.8117065E0,3.2316322E1,6.1236664E1,3.164264E1,4.804962E0,4.3641113E1,2.381394E2,3.4417725E1,1.689209E0,0E0,0E0,0E0,0E0,0E0,0E0,0E0,0E0,0E0,0E0,0E0,0E0,0E0,0E0,0E0,0E0,0E0,0E0,0E0,0E0,0E0,0E0,0E0,0E0,0E0,0E0,0E0,0E0,0E0,0E0,0E0,0E0,0E0,0E0,0E0,0E0,0E0,0E0,0E0,0E0,0E0,0E0,0E0,0E0,0E0,0E0,0E0,0E0,0E0,0E0,0E0,0E0,0E0,0E0,0E0,0E0,0E0,0E0,0E0,0E0,0E0,0E0,0E0,0E0],"parents":[2147483647,0,0,1,1,2,2,3,3,4,4,5,5,6,6,7,7,8,8,9,9,10,10,11,11,12,12,13,13,14,14,15,15,16,16,17,17,18,18,19,19,20,20,21,21,22,22,23,23,24,24,25,25,26,26,27,27,28,28,29,29,30,30,31,31,32,32,33,33,34,34,35,35,36,36,37,37,38,38,39,39,40,40,41,41,42,42,43,43,44,44,45,45,46,46,47,47,48,48,49,49,50,50,51,51,52,52,53,53,54,54,55,55,56,56,57,57,58,58,59,59,60,60,61,61,62,62],"right_children":[2,4,6,8,10,12,14,16,18,20,22,24,26,28,30,32,34,36,38,40,42,44,46,48,50,52,54,56,58,60,62,64,66,68,70,72,74,76,78,80,82,84,86,88,90,92,94,96,98,100,102,104,106,108,110,112,114,116,118,120,122,124,126,-1,-1,-1,-1,-1,-1,-1,-1,-1,-1,-1,-1,-1,-1,-1,-1,-1,-1,-1,-1,-1,-1,-1,-1,-1,-1,-1,-1,-1,-1,-1,-1,-1,-1,-1,-1,-1,-1,-1,-1,-1,-1,-1,-1,-1,-1,-1,-1,-1,-1,-1,-1,-1,-1,-1,-1,-1,-1,-1,-1,-1,-1,-1,-1],"split_conditions":[2.5306325E0,3.0923805E0,2.3207762E0,3.6728632E0,2.2869015E0,3.3704395E0,1.8142898E0,4.19851E0,3.1208558E0,3.2424388E0,3.2669587E0,4.13491E0,2.444511E0,3.5447268E0,2.8079581E0,2.6842637E0,3.9693654E0,9.9350154E-1,3.0604694E0,1.4722366E0,3.794114E0,1.0276527E0,2.4821377E0,3.8033314E0,3.7480621E0,1.0431337E0,3.1775625E0,3.4534373E0,4.054595E0,9.9751437E-1,2.1763966E0,1.7484764E0,2.435854E0,3.009614E0,1.8227367E0,1.5185709E0,4.4741764E0,4.9607652E-1,2.127215E0,4.1504803E0,4.3544726E0,4.44823E0,3.4571347E0,4.2015986E0,3.551189E0,1.1206894E0,3.273382E0,2.7432528E0,3.9255137E0,3.1533098E0,1.1185067E0,3.886547E0,4.1284094E0,1.0001786E0,4.957754E0,3.7554803E0,4.1041164E0,2.9590197E0,4.893059E0,3.715375E0,3.2306042E0,1.0158236E0,4.1762075E0,-9.411381E-2,-1.5484557E-1,-1.0828359E-1,1.3393374E-2,-7.535486E-2,9.307197E-2,3.2777682E-2,3.9433217E-1,9.733722E-3,1.4689095E-1,-7.621903E-2,3.3570343E-1,2.2722544E-1,-6.429005E-3,2.7259576E-1,4.465578E-1,-3.987541E-2,8.2890354E-2,-1.400025E-1,3.1527806E-2,1.8379187E-2,2.1703807E-1,8.981481E-2,3.717276E-1,1.9207323E-1,3.2360208E-1,6.077645E-2,3.500761E-1,3.2747015E-1,1.8301351E-1,4.7679874E-1,3.857585E-1,-1.01972386E-1,6.945992E-3,4.2501893E-2,2.8816295E-1,4.439719E-2,3.1111938E-1,-5.9902202E-2,3.1039461E-1,1.78284E-1,3.0227038E-1,3.6125824E-2,3.5705394E-1,3.3460537E-1,1.9473355E-1,4.009329E-1,4.8130125E-2,-5.822938E-2,7.52473E-2,1.3947129E-1,4.1399273E-1,1.9035475E-1,3.7358743E-1,3.6942285E-1,1.1154156E-1,3.021102E-1,3.6821622E-1,1.8834305E-1,3.823358E-1,3.648439E-1,2.8376064E-1,3.9289913E-1,3.580135E-1],"split_indices":[1,2,2,0,0,0,0,3,3,3,3,3,3,3,3,0,4,8,4,8,4,8,4,1,1,8,4,1,1,8,4,5,2,0,0,1,4,4,2,2,4,2,2,2,4,9,2,0,4,4,0,1,4,4,7,2,4,4,7,1,4,9,9,0,0,0,0,0,0,0,0,0,0,0,0,0,0,0,0,0,0,0,0,0,0,0,0,0,0,0,0,0,0,0,0,0,0,0,0,0,0,0,0,0,0,0,0,0,0,0,0,0,0,0,0,0,0,0,0,0,0,0,0,0,0,0,0],"split_type":[0,0,0,0,0,0,0,0,0,0,0,0,0,0,0,0,0,0,0,0,0,0,0,0,0,0,0,0,0,0,0,0,0,0,0,0,0,0,0,0,0,0,0,0,0,0,0,0,0,0,0,0,0,0,0,0,0,0,0,0,0,0,0,0,0,0,0,0,0,0,0,0,0,0,0,0,0,0,0,0,0,0,0,0,0,0,0,0,0,0,0,0,0,0,0,0,0,0,0,0,0,0,0,0,0,0,0,0,0,0,0,0,0,0,0,0,0,0,0,0,0,0,0,0,0,0,0],"sum_hessian":[3.00465E4,1.0342596E4,1.9703904E4,4.9021953E3,5.4404004E3,5.849664E3,1.3854241E4,3.1099106E3,1.7922845E3,1.5425314E3,3.897869E3,3.217225E3,2.6324387E3,2.5757507E3,1.127849E4,2.6396475E3,4.7026312E2,1.1548535E3,6.374311E2,1.0286475E3,5.1388385E2,2.6335781E3,1.2642908E3,2.6694397E3,5.477855E2,1.453731E3,1.1787079E3,1.8714606E3,7.042902E2,6.950474E3,4.3280166E3,1.6009536E3,1.0386938E3,4.079628E2,6.2300312E1,5.6900793E2,5.858455E2,4.7500476E2,1.6242633E2,5.630366E2,4.6561084E2,4.250236E2,8.886025E1,1.2440759E3,1.3895021E3,8.735634E2,3.9072733E2,1.2856847E3,1.383755E3,2.5472281E2,2.930627E2,8.735354E2,5.801955E2,8.951269E2,2.8358096E2,6.5113727E2,1.2203232E3,4.2030096E2,2.839893E2,3.7108013E3,3.2396729E3,2.7668757E3,1.5611409E3,2.9293542E2,1.3080182E3,6.8060596E2,3.5808792E2,2.9271033E2,1.15252464E2,1.9013006E1,4.3287308E1,1.8117667E2,3.878313E2,5.470085E2,3.883703E1,3.1311438E2,1.6189038E2,8.30742E1,7.9352135E1,3.1462875E2,2.484079E2,4.2239825E2,4.3212578E1,2.9238177E2,1.326418E2,1.4994453E1,7.38658E1,7.024699E2,5.416061E2,1.1360298E3,2.5347237E2,6.458817E2,2.2768172E2,3.5183353E1,3.5554398E2,9.111444E2,3.7454022E2,1.2724033E3,1.1135161E2,1.8925093E2,6.5471886E1,1.1343071E1,2.8171967E2,4.5827692E2,4.152585E2,5.182896E2,6.1905846E1,6.0203613E2,2.9309076E2,2.80503E2,3.077951E0,3.2120456E2,3.299327E2,1.142823E3,7.7500275E1,2.9969833E2,1.2060264E2,2.7624692E2,7.7423663E0,1.7431594E3,1.9676418E3,2.5009026E3,7.387701E2,2.1328325E3,6.3404315E2,1.253903E3,3.07238E2],"tree_param":{"num_deleted":"0","num_feature":"10","num_nodes":"127","size_leaf_vector":"0"}},{"base_weights":[-5.503844E-1,-4.7306067E-1,-5.7830155E-1,-2.944596E-1,-5.4619855E-1,-5.4533654E-1,-5.9173834E-1,5.8876746E-3,-4.663358E-1,-4.221192E-1,-5.699262E-1,-4.189866E-1,-5.7008857E-1,-5.710017E-1,-5.9369534E-1,1.8355055E-1,-3.9821854E-1,-3.4210187E-1,-5.496212E-1,-3.3411157E-1,-5.756708E-1,-5.1124865E-1,-5.8546424E-1,-2.717749E-1,-5.359592E-1,-5.2393126E-1,-5.883785E-1,-4.474951E-1,-5.797157E-1,-6.1518237E-2,6.483769E-1,-1.877817E-1,-5.286119E-1,-1.8894814E-1,-5.486331E-1,-4.8727944E-1,-5.7302845E-1,-4.2658758E-1,-8.3512045E-2,8.529728E-2,-5.797828E-1,-3.823845E-1,-5.7040536E-1,-5.5710053E-1,-5.928939E-1,-1.2062832E-1,-5.4117477E-1,-5.473297E-1,-3.1356615E-1,-3.880077E-1,-5.597043E-1,-5.533789E-1,-5.928232E-1,5.3788966E-1,-4.7329858E-1,-5.807381E-1,2.8330885E-2,-2.3982576E-1,2.934308E-1,3.224782E-1,1.1727345E0,-3.792543E-1,2.5313714E-1,-5.450382E-1,3.2878095E-1,-3.2408115E-1,1.0627468E-1,-5.637879E-1,-1.5051785E-2,-4.9777454E-1,6.343537E-1,-5.751495E-1,1.211386E-2,-4.9309775E-1,-2.602401E-1,1.0458459E-1,-5.840106E-1,-5.838705E-1,-1.9062781E-1,-2.54141E-1,-5.8837867E-1,-5.722862E-1,-3.511562E-2,-5.587733E-1,1.7853792E-1,-3.1259692E-1,1.3506229E-1,1.6333336E-1,-5.489772E-1,-5.497098E-1,1.7606825E-1,7.1234643E-1,-4.2932403E-1,-2.4791278E-1,-5.791358E-1,-5.245546E-1,-5.9128666E-1,-5.563206E-1,1.6857597E-1,-5.1158774E-1,1.01817384E-1,-4.03927E-1,-5.8584136E-1],"categories":[],"categories_nodes":[],"categories_segments":[],"categories_sizes":[],"default_left":[1,1,1,1,1,1,1,1,1,1,1,1,1,1,0,1,1,1,1,1,1,1,1,1,1,1,1,1,1,1,1,1,1,1,1,1,1,1,1,0,1,1,1,1,0,1,1,1,1,1,1,1,0,0,1,1,0,0,0,0,0,0,0,0,0,0,0,0,0,0,0,0,0,0,0,0,0,0,0,0,0,0,0,0,0,0,0,0,0,0,0,0,0,0,0,0,0,0,0,0,0,0,0],"id":9,"left_children":[1,3,5,7,9,11,13,15,17,19,21,23,25,27,-1,29,31,33,35,37,39,41,43,45,47,49,51,53,55,57,59,61,63,65,67,69,71,73,75,-1,77,79,81,83,-1,85,87,89,91,93,95,97,-1,-1,99,101,-1,-1,-1,-1,-1,-1,-1,-1,-1,-1,-1,-1,-1,-1,-1,-1,-1,-1,-1,-1,-1,-1,-1,-1,-1,-1,-1,-1,-1,-1,-1,-1,-1,-1,-1,-1,-1,-1,-1,-1,-1,-1,-1,-1,-1,-1,-1],"loss_changes":[4.6385254E1,7.480774E1,6.709961E0,8.619124E1,1.17438965E1,1.4179077E1,1.1791992E-1,4.3772488E1,1.07994995E1,8.690491E0,2.8135986E0,1.2923553E1,2.9438477E0,8.1448364E-1,0E0,4.8280113E1,5.009821E0,1.3460884E1,6.4604187E-1,9.702747E0,6.965866E-1,5.291336E0,2.3718262E-1,1.3700815E1,8.952408E-1,5.1430054E0,9.991455E-2,2.038105E0,5.9375E-1,1.7677599E1,2.4619045E1,6.240732E0,1.7905273E0,9.918809E0,1.46381E0,2.4319534E0,5.72052E-1,3.2650185E0,1.0841654E1,0E0,2.653122E-1,5.937641E0,4.765625E-1,8.0792236E-1,0E0,1.0735633E1,7.559929E-1,7.855301E-1,3.0209534E0,6.0936623E0,6.561279E-1,7.840271E-1,0E0,0E0,1.5690193E0,5.9994507E-1,0E0,0E0,0E0,0E0,0E0,0E0,0E0,0E0,0E0,0E0,0E0,0E0,0E0,0E0,0E0,0E0,0E0,0E0,0E0,0E0,0E0,0E0,0E0,0E0,0E0,0E0,0E0,0E0,0E0,0E0,0E0,0E0,0E0,0E0,0E0,0E0,0E0,0E0,0E0,0E0,0E0,0E0,0E0,0E0,0E0,0E0,0E0],"parents":[2147483647,0,0,1,1,2,2,3,3,4,4,5,5,6,6,7,7,8,8,9,9,10,10,11,11,12,12,13,13,15,15,16,16,17,17,18,18,19,19,20,20,21,21,22,22,23,23,24,24,25,25,26,26,27,27,28,28,29,29,30,30,31,31,32,32,33,33,34,34,35,35,36,36,37,37,38,38,40,40,41,41,42,42,43,43,45,45,46,46,47,47,48,48,49,49,50,50,51,51,54,54,55,55],"right_children":[2,4,6,8,10,12,14,16,18,20,22,24,26,28,-1,30,32,34,36,38,40,42,44,46,48,50,52,54,56,58,60,62,64,66,68,70,72,74,76,-1,78,80,82,84,-1,86,88,90,92,94,96,98,-1,-1,100,102,-1,-1,-1,-1,-1,-1,-1,-1,-1,-1,-1,-1,-1,-1,-1,-1,-1,-1,-1,-1,-1,-1,-1,-1,-1,-1,-1,-1,-1,-1,-1,-1,-1,-1,-1,-1,-1,-1,-1,-1,-1,-1,-1,-1,-1,-1,-1],"split_conditions":[2.0549164E0,2.1387322E0,2.1544814E0,2.417852E0,1.6343138E0,1.6444638E0,1.3492155E0,2.9790874E0,3.457946E0,2.685216E0,2.7232764E0,3.3112478E0,2.6134748E0,2.338678E0,-1.781086E-1,2.4449282E0,1.5576189E0,2.2736468E0,3.903274E0,2.6886587E0,1.0060267E0,2.6571517E0,2.336244E0,2.7995033E0,4.8312426E0,2.6808171E0,2.4078128E0,9.984561E-1,5.075172E0,3.7236037E0,3.7999647E0,3.968306E0,4.916391E0,1.8031573E0,4.938821E0,3.901379E0,5.0388637E0,3.8568354E0,2.749696E0,2.5589185E-2,4.9789686E0,2.6887426E0,5.065975E0,2.3333683E0,-1.7786817E-1,3.3582618E0,1.003097E0,5.102297E0,3.456424E0,2.4686046E0,1.9361961E0,2.406084E0,-1.7784697E-1,1.6136691E-1,1.3302511E0,2.1471715E0,8.499266E-3,-7.194773E-2,8.802924E-2,9.6743464E-2,3.5182035E-1,-1.137763E-1,7.5941145E-2,-1.6351147E-1,9.863429E-2,-9.722435E-2,3.1882405E-2,-1.6913638E-1,-4.5155357E-3,-1.4933237E-1,1.9030611E-1,-1.7254485E-1,3.634158E-3,-1.4792933E-1,-7.8072034E-2,3.137538E-2,-1.7520319E-1,-1.7516115E-1,-5.7188347E-2,-7.6242305E-2,-1.7651361E-1,-1.7168586E-1,-1.0534686E-2,-1.6763198E-1,5.356138E-2,-9.377908E-2,4.051869E-2,4.900001E-2,-1.6469316E-1,-1.6491294E-1,5.2820478E-2,2.1370395E-1,-1.2879722E-1,-7.4373834E-2,-1.7374074E-1,-1.573664E-1,-1.77386E-1,-1.668962E-1,5.0572794E-2,-1.5347633E-1,3.0545216E-2,-1.21178105E-1,-1.7575242E-1],"split_indices":[5,6,6,7,7,7,7,8,7,8,6,5,7,6,0,3,7,8,7,3,2,7,7,8,0,5,5,7,0,1,0,0,2,3,0,7,2,0,9,0,0,8,2,7,0,2,6,2,5,8,8,5,0,0,7,5,0,0,0,0,0,0,0,0,0,0,0,0,0,0,0,0,0,0,0,0,0,0,0,0,0,0,0,0,0,0,0,0,0,0,0,0,0,0,0,0,0,0,0,0,0,0,0],"split_type":[0,0,0,0,0,0,0,0,0,0,0,0,0,0,0,0,0,0,0,0,0,0,0,0,0,0,0,0,0,0,0,0,0,0,0,0,0,0,0,0,0,0,0,0,0,0,0,0,0,0,0,0,0,0,0,0,0,0,0,0,0,0,0,0,0,0,0,0,0,0,0,0,0,0,0,0,0,0,0,0,0,0,0,0,0,0,0,0,0,0,0,0,0,0,0,0,0,0,0,0,0,0,0],"sum_hessian":[2.1613744E4,5.738223E3,1.5875521E4,1.6685901E3,4.0696333E3,4.6091934E3,1.1266328E4,6.0767175E2,1.0609183E3,6.563197E2,3.4133135E3,7.57969E2,3.8512246E3,9.968002E2,1.0269528E4,4.2247775E2,1.8519403E2,4.278368E2,6.330815E2,4.1922058E2,2.3709912E2,7.217231E2,2.6915903E3,3.3707657E2,4.2089246E2,1.1013789E3,2.7498457E3,6.91446E1,9.276556E2,2.7719882E2,1.4527893E2,7.178426E1,1.1340976E2,2.4676355E2,1.8107323E2,1.7877028E2,4.5431122E2,3.0570673E2,1.1351388E2,1.3438628E0,2.3575526E2,2.2942294E2,4.9230014E2,5.744671E2,2.1171233E3,2.1685695E2,1.20219635E2,3.9902966E2,2.1862782E1,2.3194089E2,8.69438E2,3.240039E2,2.4258418E3,1.2580098E0,6.788659E1,9.2614325E2,1.512342E0,1.8472643E2,9.247239E1,9.059027E1,5.468866E1,5.0147263E1,2.1637E1,1.1163531E2,1.7744563E0,1.69212E2,7.7551544E1,1.7601738E2,5.0558543E0,1.776641E2,1.1061888E0,4.526874E2,1.6238145E0,2.1698576E2,8.8720955E1,8.308139E1,3.0432487E1,2.3280948E2,2.9457865E0,1.427724E2,8.665054E1,4.9050757E2,1.7925603E0,5.734036E2,1.0634362E0,1.23735596E2,9.3121346E1,1.0984949E0,1.1912114E2,3.9796042E2,1.0692381E0,1.6941845E0,2.0168596E1,1.351641E2,9.677681E1,4.1981335E2,4.4962463E2,3.2291754E2,1.0863676E0,6.3752625E1,4.133963E0,2.8229387E1,8.979138E2],"tree_param":{"num_deleted":"0","num_feature":"10","num_nodes":"103","size_leaf_vector":"0"}},{"base_weights":[-5.7137823E-1],"categories":[],"categories_nodes":[],"categories_segments":[],"categories_sizes":[],"default_left":[0],"id":10,"left_children":[-1],"loss_changes":[0E0],"parents":[2147483647],"right_children":[-1],"split_conditions":[-1.7141348E-1],"split_indices":[0],"split_type":[0],"sum_hessian":[1.7859016E4],"tree_param":{"num_deleted":"0","num_feature":"10","num_nodes":"1","size_leaf_vector":"0"}},{"base_weights":[-4.3046492E-1,-2.9375228E-1,-5.0145096E-1,-1.0650986E-1,-4.6152374E-1,-4.1353464E-1,-5.322199E-1,2.0078124E-1,-3.3126292E-1,-2.4186158E-1,-4.9666056E-1,-2.4253228E-1,-4.820224E-1,-5.4878134E-1,-4.6701735E-1,3.7708592E-1,-3.447969E-1,-1.9457777E-1,-4.614349E-1,-8.937654E-2,-4.726004E-1,-5.169973E-1,-3.219797E-1,-4.124609E-2,-4.2005578E-1,-5.261246E-1,-3.5934097E-1,-5.062328E-1,-5.588936E-1,-5.420534E-1,-3.6737436E-1,4.2969722E-1,-2.867261E-1,6.609511E-1,-3.6561593E-1,-1.6429745E-2,-4.2229417E-1,-5.1554793E-1,-3.149624E-1,1.6820183E-1,-3.2479715E-1,-5.0061744E-1,1.2890966E-1,-5.2866054E-1,-3.2910132E-1,-4.4759244E-1,5.8530453E-3,1.0806499E-1,-5.028851E-1,-3.4331825E-1,-5.4634625E-1,-4.2784578E-1,-5.488493E-1,-4.681949E-1,-1.093663E-1,-4.3121415E-1,-5.5069923E-1,-5.675218E-1,-5.292054E-1,7.925763E-2,-5.44693E-1,-4.726284E-1,-1.4927167E-1,2.809161E-1,9.6092767E-1,1.0406747E-2,-5.0328094E-1,-1.3817383E-1,1.1674867E0,-5.88516E-2,-4.1467893E-1,-2.2159311E-1,3.7644634E-1,-4.6781644E-1,-9.9832006E-2,-5.3470373E-1,-3.5636222E-1,-4.1889194E-1,1.8820131E-1,-1.09020345E-1,5.222091E-1,5.6487486E-2,-4.2568234E-1,-5.241049E-1,-1.4853871E-1,8.811115E-1,-3.3367524E-1,-5.419067E-1,-4.3007764E-1,-4.3158466E-1,1.8481432E-1,-4.7828248E-1,1.6494623E-1,-1.8715721E-1,8.6654687E-1,1.817512E-1,-4.4016355E-1,-5.1912636E-1,2.2027677E-1,-3.7783888E-1,1.6045871E-1,-5.668671E-1,-2.5228474E-1,-4.613782E-1,1.506982E-1,-5.495408E-1,1.7987238E-1,-5.067258E-1,-2.1192418E-1,-3.8029245E-1,2.0254804E-1,-2.2928171E-1,-5.042858E-1,-5.610676E-1,-4.8195705E-1,-5.6895125E-1,-4.8638147E-1,-5.4366267E-1,-4.0605927E-1,9.8730093E-1,-4.4092676E-1,-5.490009E-1,-2.2121435E-1,-2.3585315E-1,-5.034492E-1,-2.5148344E-1,3.641624E-1],"categories":[],"categories_nodes":[],"categories_segments":[],"categories_sizes":[],"default_left":[1,1,1,1,1,1,1,1,1,1,1,1,1,1,1,1,1,1,1,1,1,1,1,1,1,1,1,1,1,1,1,1,1,1,1,1,1,1,1,1,1,1,1,1,1,1,1,1,1,1,1,1,1,1,1,1,1,1,1,1,1,1,1,0,0,0,0,0,0,0,0,0,0,0,0,0,0,0,0,0,0,0,0,0,0,0,0,0,0,0,0,0,0,0,0,0,0,0,0,0,0,0,0,0,0,0,0,0,0,0,0,0,0,0,0,0,0,0,0,0,0,0,0,0,0,0,0],"id":11,"left_children":[1,3,5,7,9,11,13,15,17,19,21,23,25,27,29,31,33,35,37,39,41,43,45,47,49,51,53,55,57,59,61,63,65,67,69,71,73,75,77,79,81,83,85,87,89,91,93,95,97,99,101,103,105,107,109,111,113,115,117,119,121,123,125,-1,-1,-1,-1,-1,-1,-1,-1,-1,-1,-1,-1,-1,-1,-1,-1,-1,-1,-1,-1,-1,-1,-1,-1,-1,-1,-1,-1,-1,-1,-1,-1,-1,-1,-1,-1,-1,-1,-1,-1,-1,-1,-1,-1,-1,-1,-1,-1,-1,-1,-1,-1,-1,-1,-1,-1,-1,-1,-1,-1,-1,-1,-1,-1],"loss_changes":[1.841145E2,2.0387885E2,3.3583496E1,2.1203279E2,2.6303467E1,3.787677E1,9.735596E0,1.2489665E2,3.1456268E1,1.6637047E1,1.031488E1,3.3205227E1,1.2338379E1,2.8894043E0,1.386438E1,3.437657E1,6.885826E0,3.5148094E1,7.0297394E0,1.7437595E1,3.2394562E0,5.6140747E0,1.2782066E1,3.0163343E1,4.5991516E0,3.5640259E0,1.6694374E1,4.5209656E0,1.2232666E0,1.7993774E0,1.8549065E1,7.158836E1,4.6783767E0,2.9103692E0,4.664261E0,3.9357784E1,5.5363083E0,1.8251648E0,1.3014429E1,1.355569E1,5.798333E0,1.4124146E0,3.4881444E0,3.012207E0,8.349236E0,4.296921E0,1.460733E1,1.3446823E1,1.3702755E0,5.450508E0,9.7332E-1,6.354763E0,7.932129E-1,4.1228867E0,1.5963528E1,7.785507E0,3.6532593E-1,2.562256E-1,2.190094E0,2.9875438E0,1.3646545E0,3.8702545E0,1.4023498E1,0E0,0E0,0E0,0E0,0E0,0E0,0E0,0E0,0E0,0E0,0E0,0E0,0E0,0E0,0E0,0E0,0E0,0E0,0E0,0E0,0E0,0E0,0E0,0E0,0E0,0E0,0E0,0E0,0E0,0E0,0E0,0E0,0E0,0E0,0E0,0E0,0E0,0E0,0E0,0E0,0E0,0E0,0E0,0E0,0E0,0E0,0E0,0E0,0E0,0E0,0E0,0E0,0E0,0E0,0E0,0E0,0E0,0E0,0E0,0E0,0E0,0E0,0E0,0E0],"parents":[2147483647,0,0,1,1,2,2,3,3,4,4,5,5,6,6,7,7,8,8,9,9,10,10,11,11,12,12,13,13,14,14,15,15,16,16,17,17,18,18,19,19,20,20,21,21,22,22,23,23,24,24,25,25,26,26,27,27,28,28,29,29,30,30,31,31,32,32,33,33,34,34,35,35,36,36,37,37,38,38,39,39,40,40,41,41,42,42,43,43,44,44,45,45,46,46,47,47,48,48,49,49,50,50,51,51,52,52,53,53,54,54,55,55,56,56,57,57,58,58,59,59,60,60,61,61,62,62],"right_children":[2,4,6,8,10,12,14,16,18,20,22,24,26,28,30,32,34,36,38,40,42,44,46,48,50,52,54,56,58,60,62,64,66,68,70,72,74,76,78,80,82,84,86,88,90,92,94,96,98,100,102,104,106,108,110,112,114,116,118,120,122,124,126,-1,-1,-1,-1,-1,-1,-1,-1,-1,-1,-1,-1,-1,-1,-1,-1,-1,-1,-1,-1,-1,-1,-1,-1,-1,-1,-1,-1,-1,-1,-1,-1,-1,-1,-1,-1,-1,-1,-1,-1,-1,-1,-1,-1,-1,-1,-1,-1,-1,-1,-1,-1,-1,-1,-1,-1,-1,-1,-1,-1,-1,-1,-1,-1],"split_conditions":[2.2769608E0,2.743524E0,1.9902735E0,2.4783106E0,1.5539043E0,2.082944E0,4.2099304E0,3.2188334E0,3.6624112E0,2.48207E0,4.6019363E0,3.42762E0,3.9866238E0,1.7499721E0,3.3404536E0,3.546772E0,1.041073E0,2.0834665E0,3.9213262E0,3.7444906E0,4.8157434E0,4.6725564E0,3.9678974E0,3.1488533E0,2.7518988E0,2.7679737E0,3.8608222E0,3.053998E0,4.0886564E0,1.0184044E0,3.815158E0,1.0431552E0,1.9085851E0,1.8153746E0,1.2003746E0,1.2069694E0,4.5285077E0,4.366131E0,4.3102365E0,1.0601612E0,1.2949996E0,4.716943E0,3.761333E0,4.5300846E0,3.6373339E0,4.753763E0,3.898315E0,3.2118697E0,4.9280167E0,4.5635605E0,4.7511578E0,4.339756E0,5.108159E0,4.4933777E0,3.3198195E0,3.0016756E0,4.089179E0,4.8862033E0,4.3720284E0,2.66718E0,4.969556E0,1.4610419E0,4.11067E0,8.427483E-2,2.882783E-1,3.1220245E-3,-1.5098429E-1,-4.145215E-2,3.50246E-1,-1.765548E-2,-1.24403685E-1,-6.647794E-2,1.12933904E-1,-1.4034493E-1,-2.9949604E-2,-1.6041112E-1,-1.0690867E-1,-1.2566759E-1,5.6460395E-2,-3.2706104E-2,1.5666273E-1,1.6946247E-2,-1.2770471E-1,-1.5723148E-1,-4.4561613E-2,2.6433346E-1,-1.0010257E-1,-1.6257203E-1,-1.290233E-1,-1.294754E-1,5.5444296E-2,-1.4348476E-1,4.948387E-2,-5.6147166E-2,2.5996408E-1,5.4525364E-2,-1.3204907E-1,-1.557379E-1,6.608304E-2,-1.13351665E-1,4.8137616E-2,-1.7006014E-1,-7.568543E-2,-1.3841346E-1,4.520946E-2,-1.6486225E-1,5.3961717E-2,-1.5201774E-1,-6.357726E-2,-1.1408774E-1,6.0764413E-2,-6.878451E-2,-1.5128575E-1,-1.6832028E-1,-1.4458711E-1,-1.7068538E-1,-1.4591445E-1,-1.6309881E-1,-1.2181778E-1,2.961903E-1,-1.3227804E-1,-1.6470028E-1,-6.636431E-2,-7.075595E-2,-1.5103477E-1,-7.544503E-2,1.0924872E-1],"split_indices":[0,1,2,2,2,1,5,3,2,3,5,0,7,1,6,4,1,3,6,1,8,8,6,3,3,0,6,2,7,1,7,9,3,9,2,8,5,8,5,3,0,6,1,6,9,7,8,4,9,8,8,9,6,5,5,0,8,8,8,2,7,1,8,0,0,0,0,0,0,0,0,0,0,0,0,0,0,0,0,0,0,0,0,0,0,0,0,0,0,0,0,0,0,0,0,0,0,0,0,0,0,0,0,0,0,0,0,0,0,0,0,0,0,0,0,0,0,0,0,0,0,0,0,0,0,0,0],"split_type":[0,0,0,0,0,0,0,0,0,0,0,0,0,0,0,0,0,0,0,0,0,0,0,0,0,0,0,0,0,0,0,0,0,0,0,0,0,0,0,0,0,0,0,0,0,0,0,0,0,0,0,0,0,0,0,0,0,0,0,0,0,0,0,0,0,0,0,0,0,0,0,0,0,0,0,0,0,0,0,0,0,0,0,0,0,0,0,0,0,0,0,0,0,0,0,0,0,0,0,0,0,0,0,0,0,0,0,0,0,0,0,0,0,0,0,0,0,0,0,0,0,0,0,0,0,0,0],"sum_hessian":[1.8985893E4,6.49064E3,1.2495252E4,3.068101E3,3.422539E3,3.243118E3,9.252134E3,1.2961125E3,1.7719886E3,4.7305588E2,2.9494832E3,9.287435E2,2.3143745E3,7.3721855E3,1.8799486E3,9.797977E2,3.163148E2,8.6558685E2,9.0640173E2,2.8566193E2,1.8739395E2,2.6401516E3,3.093317E2,4.3581927E2,4.9292422E2,1.6999706E3,6.144038E2,1.4254642E3,5.946721E3,1.0698555E3,8.1009314E2,9.0817206E2,7.162567E1,5.7913866E0,3.105234E2,4.862522E2,3.7933466E2,6.60037E2,2.4636478E2,1.3654779E2,1.4911414E2,1.7921426E2,8.17969E0,2.4841396E3,1.5601196E2,2.2337701E2,8.595468E1,3.2988742E2,1.05931854E2,3.0892902E2,1.8399521E2,3.2298123E2,1.3769894E3,4.274107E2,1.8699313E2,5.3446826E2,8.90996E2,4.593587E3,1.3531345E3,4.4032326E0,1.0654523E3,5.456171E2,2.64476E2,7.106655E2,1.9750648E2,3.0596483E1,4.102919E1,2.5289156E0,3.2624707E0,4.3119556E1,2.6740387E2,3.1972498E2,1.6652724E2,3.3201328E2,4.7321384E1,5.8703625E2,7.300072E1,2.0432788E2,4.203689E1,7.6967094E1,5.95807E1,3.1291475E1,1.17822655E2,1.6754839E2,1.1665876E1,2.7702594E0,5.4094305E0,2.1859285E3,2.9821097E2,1.3020677E2,2.5805187E1,2.1292787E2,1.044915E1,7.0849304E1,1.5105378E1,2.9139072E2,3.849672E1,1.0388096E2,2.0508916E0,2.893516E2,1.9577423E1,1.7112561E2,1.2869594E1,3.054782E2,1.7503002E1,1.3759297E3,1.0597398E0,3.706981E2,5.671262E1,9.9954384E1,8.703875E1,1.4311365E2,3.9135458E2,7.6799713E2,1.22998856E2,4.5081567E3,8.5430115E1,1.2079111E3,1.4522336E2,1.2766706E0,3.1265619E0,1.0507616E3,1.4690669E1,6.3838825E1,4.817783E2,2.2099223E2,4.3483788E1],"tree_param":{"num_deleted":"0","num_feature":"10","num_nodes":"127","size_leaf_vector":"0"}},{"base_weights":[4.267075E-1,5.574592E-1,2.2317159E-1,6.39145E-1,3.1739467E-1,4.5619658E-1,-1.5673605E-4,6.964413E-1,4.4395664E-1,5.485671E-1,6.472558E-2,5.955637E-1,1.0822114E-1,2.3102492E-1,-2.6543814E-1,7.065812E-1,5.0108236E-1,6.346424E-1,2.3581856E-1,6.679402E-1,1.9173509E-1,2.4178934E-1,-2.642897E-1,6.5817064E-1,1.1345673E-1,2.722584E-1,-2.2855966E-1,3.794794E-1,-1.1028691E-1,-1.648168E-1,-4.4618186E-1,6.850484E-1,7.6018596E-1,8.325951E-1,3.023693E-1,7.047037E-1,1.0919088E-1,4.1280937E-1,-1.3369946E-1,4.5039925E-1,8.4871435E-1,2.9175827E-1,-4.2253202E-1,3.4211606E-2,4.6918896E-1,-2.616616E-2,-3.8131526E-1,6.8783987E-1,1.5119986E-1,5.703755E-1,-5.9182916E-2,4.3122372E-1,4.87846E-3,-1.08385585E-1,-4.9358392E-1,1.718506E-1,5.8625317E-1,8.505065E-3,-4.2638162E-1,8.041731E-3,-3.0389765E-1,-5.065457E-1,-2.482725E-1,5.8009386E-1,6.957743E-1,8.104637E-1,5.934609E-1,1.0477703E0,6.569408E-1,5.4429835E-1,-7.381016E-2,7.3361903E-1,-1.1609216E-1,2.9006216E-1,-4.7596824E-1,2.0523153E-1,6.556131E-1,5.816754E-2,-3.8246349E-1,7.041542E-1,3.3281997E-1,9.322698E-1,3.5777798E-1,5.8016133E-1,8.031894E-2,2.972378E-2,-5.255119E-1,3.449524E-1,-6.78639E-2,6.995077E-1,1.0184367E-1,1.5221943E-1,-4.1707745E-1,-4.105932E-1,5.8777966E-2,6.1903775E-1,9.071873E-1,4.8664168E-1,-2.7248338E-1,7.4629754E-1,-1.4759675E-1,1.2730838E-1,-3.52553E-1,2.0431434E-1,6.820435E-1,8.842597E-2,-4.949368E-1,1.2732123E-1,-3.3048457E-1,-5.580305E-1,-1.671067E-1,3.532504E-1,-3.0903336E-2,7.453672E-1,-1.3968585E-1,1.5650567E-1,-3.789219E-1,-5.074068E-1,4.3812007E-2,-1.7823116E-1,2.2997366E-1,-3.4564558E-1,3.7625622E-2,-5.1005363E-1,3.8757336E-1,-4.2962548E-1,1.5622225E-1],"categories":[],"categories_nodes":[],"categories_segments":[],"categories_sizes":[],"default_left":[1,1,1,1,1,1,1,1,1,1,1,1,1,1,1,1,1,1,1,1,1,1,1,1,1,1,1,1,1,1,1,1,1,1,1,1,1,1,1,1,1,1,1,1,1,1,1,1,1,1,1,1,1,1,1,1,1,1,1,1,1,1,1,0,0,0,0,0,0,0,0,0,0,0,0,0,0,0,0,0,0,0,0,0,0,0,0,0,0,0,0,0,0,0,0,0,0,0,0,0,0,0,0,0,0,0,0,0,0,0,0,0,0,0,0,0,0,0,0,0,0,0,0,0,0,0,0],"id":12,"left_children":[1,3,5,7,9,11,13,15,17,19,21,23,25,27,29,31,33,35,37,39,41,43,45,47,49,51,53,55,57,59,61,63,65,67,69,71,73,75,77,79,81,83,85,87,89,91,93,95,97,99,101,103,105,107,109,111,113,115,117,119,121,123,125,-1,-1,-1,-1,-1,-1,-1,-1,-1,-1,-1,-1,-1,-1,-1,-1,-1,-1,-1,-1,-1,-1,-1,-1,-1,-1,-1,-1,-1,-1,-1,-1,-1,-1,-1,-1,-1,-1,-1,-1,-1,-1,-1,-1,-1,-1,-1,-1,-1,-1,-1,-1,-1,-1,-1,-1,-1,-1,-1,-1,-1,-1,-1,-1],"loss_changes":[8.3515234E2,3.7453174E2,6.3896136E2,1.5913428E2,2.8345715E2,2.913291E2,3.846168E2,2.1475098E1,1.2836652E2,1.07828735E2,1.3522275E2,1.2941296E2,9.5056076E1,1.6983984E2,5.3037888E1,1.1568359E1,3.579474E1,6.211255E1,1.0141312E2,7.4285706E1,3.9244057E1,7.120645E1,2.2623363E1,5.700476E1,3.902426E1,4.9165108E1,1.790142E1,1.0017026E2,3.817412E1,4.5141502E1,1.2343872E1,8.019287E0,2.4603027E1,7.041031E0,3.1318783E1,3.5457092E1,2.1298025E1,5.2691467E1,2.401422E1,2.553981E1,4.215753E1,3.3379578E1,4.187169E0,2.5077757E1,6.0842773E1,1.880102E1,7.040039E0,5.3565308E1,3.0147657E1,1.7242344E1,1.9721579E1,4.114821E1,1.8096611E1,2.0414354E1,3.6013756E0,4.2924847E1,1.3522183E2,4.2481567E1,1.060165E1,3.4688034E1,1.4847801E1,2.7033386E0,1.8106577E1,0E0,0E0,0E0,0E0,0E0,0E0,0E0,0E0,0E0,0E0,0E0,0E0,0E0,0E0,0E0,0E0,0E0,0E0,0E0,0E0,0E0,0E0,0E0,0E0,0E0,0E0,0E0,0E0,0E0,0E0,0E0,0E0,0E0,0E0,0E0,0E0,0E0,0E0,0E0,0E0,0E0,0E0,0E0,0E0,0E0,0E0,0E0,0E0,0E0,0E0,0E0,0E0,0E0,0E0,0E0,0E0,0E0,0E0,0E0,0E0,0E0,0E0,0E0,0E0],"parents":[2147483647,0,0,1,1,2,2,3,3,4,4,5,5,6,6,7,7,8,8,9,9,10,10,11,11,12,12,13,13,14,14,15,15,16,16,17,17,18,18,19,19,20,20,21,21,22,22,23,23,24,24,25,25,26,26,27,27,28,28,29,29,30,30,31,31,32,32,33,33,34,34,35,35,36,36,37,37,38,38,39,39,40,40,41,41,42,42,43,43,44,44,45,45,46,46,47,47,48,48,49,49,50,50,51,51,52,52,53,53,54,54,55,55,56,56,57,57,58,58,59,59,60,60,61,61,62,62],"right_children":[2,4,6,8,10,12,14,16,18,20,22,24,26,28,30,32,34,36,38,40,42,44,46,48,50,52,54,56,58,60,62,64,66,68,70,72,74,76,78,80,82,84,86,88,90,92,94,96,98,100,102,104,106,108,110,112,114,116,118,120,122,124,126,-1,-1,-1,-1,-1,-1,-1,-1,-1,-1,-1,-1,-1,-1,-1,-1,-1,-1,-1,-1,-1,-1,-1,-1,-1,-1,-1,-1,-1,-1,-1,-1,-1,-1,-1,-1,-1,-1,-1,-1,-1,-1,-1,-1,-1,-1,-1,-1,-1,-1,-1,-1,-1,-1,-1,-1,-1,-1,-1,-1,-1,-1,-1,-1],"split_conditions":[3.2398129E0,3.8530607E0,2.6871853E0,3.9933238E0,2.7989917E0,3.623365E0,2.8556721E0,4.672512E0,2.35902E0,3.2905743E0,2.5714498E0,4.1919994E0,2.6658556E0,2.9013872E0,2.63803E0,1.4393371E0,1.9447914E0,4.161433E0,2.6897624E0,9.9562323E-1,3.5319724E0,1.0371639E0,1.6925055E0,4.205742E0,1.6969056E0,4.318755E0,2.347997E0,9.808557E-1,2.471858E0,3.6130347E0,4.104823E0,1.4025717E0,4.1100245E0,2.2071967E0,2.672453E0,4.4734097E0,2.8889296E0,1.1623447E0,2.1383467E0,1.6023618E0,3.6381245E0,1.9234043E0,1.4982566E0,1.5548773E0,4.096909E0,2.3209858E0,4.4771137E0,1.304193E0,2.3788142E0,2.9863186E0,4.2753787E0,1.0065589E0,2.8865085E0,3.6848106E0,4.335308E0,3.8370426E0,3.4019823E0,4.375616E0,4.377221E0,1.0513377E0,4.0781937E0,5.076125E0,3.843512E0,1.7402816E-1,2.087323E-1,2.4313913E-1,1.7803828E-1,3.1433108E-1,1.9708225E-1,1.6328952E-1,-2.214305E-2,2.2008573E-1,-3.482765E-2,8.7018654E-2,-1.4279048E-1,6.1569463E-2,1.9668394E-1,1.7450262E-2,-1.1473905E-1,2.1124627E-1,9.9846E-2,2.7968097E-1,1.073334E-1,1.7404841E-1,2.4095684E-2,8.917134E-3,-1.5765359E-1,1.03485726E-1,-2.035917E-2,2.0985232E-1,3.0553102E-2,4.566583E-2,-1.2512325E-1,-1.2317797E-1,1.763339E-2,1.8571132E-1,2.721562E-1,1.459925E-1,-8.174501E-2,2.2388928E-1,-4.4279024E-2,3.8192518E-2,-1.0576591E-1,6.1294302E-2,2.0461306E-1,2.6527792E-2,-1.4848104E-1,3.819637E-2,-9.9145375E-2,-1.6740915E-1,-5.0132014E-2,1.0597513E-1,-9.271001E-3,2.2361018E-1,-4.1905757E-2,4.6951704E-2,-1.1367657E-1,-1.5222204E-1,1.3143603E-2,-5.3469352E-2,6.89921E-2,-1.0369368E-1,1.1287687E-2,-1.5301609E-1,1.1627201E-1,-1.2888765E-1,4.6866678E-2],"split_indices":[2,1,1,0,0,0,0,3,1,3,3,3,3,3,3,4,0,3,3,3,4,8,2,4,0,2,4,3,4,1,7,5,4,1,1,4,4,8,2,0,4,2,2,2,0,4,9,9,0,4,2,8,4,3,5,1,4,3,9,8,8,5,8,0,0,0,0,0,0,0,0,0,0,0,0,0,0,0,0,0,0,0,0,0,0,0,0,0,0,0,0,0,0,0,0,0,0,0,0,0,0,0,0,0,0,0,0,0,0,0,0,0,0,0,0,0,0,0,0,0,0,0,0,0,0,0,0],"split_type":[0,0,0,0,0,0,0,0,0,0,0,0,0,0,0,0,0,0,0,0,0,0,0,0,0,0,0,0,0,0,0,0,0,0,0,0,0,0,0,0,0,0,0,0,0,0,0,0,0,0,0,0,0,0,0,0,0,0,0,0,0,0,0,0,0,0,0,0,0,0,0,0,0,0,0,0,0,0,0,0,0,0,0,0,0,0,0,0,0,0,0,0,0,0,0,0,0,0,0,0,0,0,0,0,0,0,0,0,0,0,0,0,0,0,0,0,0,0,0,0,0,0,0,0,0,0,0],"sum_hessian":[3.1385453E4,1.9108436E4,1.2277018E4,1.4255952E4,4.852483E3,6.007567E3,6.269451E3,1.1018868E4,3.2370837E3,2.5334255E3,2.3190574E3,4.2890527E3,1.7185139E3,3.3501042E3,2.919347E3,1.0472681E4,5.461875E2,1.6882988E3,1.5487849E3,1.8977039E3,6.357216E2,1.5078524E3,8.112049E2,3.7957656E3,4.932872E2,1.1557632E3,5.627508E2,2.3345667E3,1.0155377E3,1.8765629E3,1.042784E3,7.481274E3,2.991407E3,2.0349954E2,3.4268793E2,1.4893718E3,1.9892696E2,1.0471206E3,5.0166434E2,8.6285187E2,1.034852E3,5.4715204E2,8.856959E1,7.88884E2,7.1896844E2,2.677042E2,5.4350073E2,3.585572E3,2.1019357E2,1.3463913E2,3.5864807E2,7.2444574E2,4.3131735E2,3.8815335E2,1.7459746E2,1.1657885E3,1.1687782E3,7.388446E2,2.7669308E2,8.371017E2,1.0394612E3,7.978686E2,2.4491547E2,6.9877246E2,6.7825015E3,2.295356E3,6.960509E2,8.9229355E1,1.14270195E2,2.0828712E2,1.344008E2,1.4387916E3,5.058024E1,1.5234254E2,4.658441E1,5.655046E2,4.8161603E2,2.8365375E2,2.1801059E2,2.7163382E2,5.912181E2,8.835724E2,1.512796E2,2.3071422E2,3.1643784E2,1.6558996E1,7.201059E1,1.9447597E2,5.94408E2,4.4134747E2,2.7762094E2,1.8424005E2,8.346414E1,5.0966165E2,3.3839077E1,2.7323464E3,8.532256E2,1.172304E2,9.2963165E1,1.0810992E2,2.6529219E1,2.1961067E2,1.3903741E2,3.8130487E2,3.431409E2,3.7025055E2,6.106681E1,1.8851497E2,1.9963838E2,1.4522151E2,2.937595E1,6.1490405E2,5.5088434E2,9.586343E2,2.1014388E2,5.350476E2,2.03797E2,2.3595369E2,4.0739403E1,4.5522073E2,3.8188098E2,9.2622675E2,1.13234375E2,7.951784E2,2.6901903E0,1.6905739E2,7.585808E1],"tree_param":{"num_deleted":"0","num_feature":"10","num_nodes":"127","size_leaf_vector":"0"}},{"base_weights":[4.573882E-1,2.1333449E-1,5.9859776E-1,-5.6183178E-2,4.3902963E-1,4.226096E-1,7.5217223E-1,-3.396958E-1,1.7468461E-1,7.924072E-2,5.8987576E-1,5.3827494E-2,5.6144553E-1,5.1746196E-1,8.1974083E-1,-3.942474E-1,-7.3137455E-2,2.0788524E-2,4.6645993E-1,-7.943017E-2,4.083337E-1,4.809161E-1,8.3656603E-1,-6.262873E-2,4.2437544E-1,4.3525586E-1,7.574235E-1,3.639415E-1,7.25954E-1,7.4605566E-1,9.016177E-1,-2.7339903E-1,-4.6420157E-1,-4.3171576E-1,1.1802975E-1,2.0788509E-1,-1.8390472E-1,3.1606242E-1,8.7777936E-1,1.3195886E-1,-3.1694576E-1,2.7029163E-1,8.8648677E-1,3.5219806E-1,7.629451E-1,7.6376104E-1,9.7022414E-1,-1.90327E-1,2.4512966E-1,-6.4649224E-2,5.65823E-1,6.468096E-1,1.9441332E-1,6.595344E-1,9.006878E-1,5.6184304E-1,1.0386199E-1,6.11393E-1,1.0178847E0,8.3292556E-1,5.92812E-1,8.6892706E-1,9.5711863E-1,-7.624048E-2,-4.1948465E-1,-5.3916484E-1,-3.6154816E-1,1.2005765E-1,-4.7110486E-1,-6.2119435E-3,8.196955E-1,-1.3937826E-1,3.0035836E-1,-2.639204E-1,4.6370316E-1,5.246917E-1,-1.0688425E-1,6.090592E-1,1.0455086E0,-8.8085026E-2,3.3720443E-1,-5.237293E-1,-1.3366917E-2,5.388072E-1,-1.7956758E-1,5.4074323E-1,1.0179174E0,5.718834E-1,1.5049148E-1,6.189401E-1,9.1756684E-1,8.4735566E-1,4.7910145E-1,9.753153E-1,9.442555E-2,-4.4558913E-2,-3.3488876E-1,-9.470531E-2,4.1544414E-1,-2.3067781E-1,4.480275E-1,3.8902897E-1,8.1229955E-1,5.23168E-1,7.85916E-1,5.492532E-2,7.7106863E-1,5.617629E-1,9.612908E-1,7.732653E-1,9.539252E-1,4.1404286E-1,7.928408E-1,-4.1268867E-2,8.1035435E-1,4.2881516E-1,7.712694E-1,1.0353059E0,4.2234606E-1,7.728986E-1,9.0821725E-1,3.9206234E-1,8.0510515E-1,9.081583E-1,7.217536E-1,9.607762E-1,5.1328725E-1],"categories":[],"categories_nodes":[],"categories_segments":[],"categories_sizes":[],"default_left":[1,1,1,1,1,1,1,1,1,1,1,1,1,1,1,1,1,1,1,1,1,1,1,1,1,1,1,1,1,1,1,1,1,1,1,1,1,1,1,1,1,1,1,1,1,1,1,1,1,1,1,1,1,1,1,1,1,1,1,1,1,1,1,0,0,0,0,0,0,0,0,0,0,0,0,0,0,0,0,0,0,0,0,0,0,0,0,0,0,0,0,0,0,0,0,0,0,0,0,0,0,0,0,0,0,0,0,0,0,0,0,0,0,0,0,0,0,0,0,0,0,0,0,0,0,0,0],"id":13,"left_children":[1,3,5,7,9,11,13,15,17,19,21,23,25,27,29,31,33,35,37,39,41,43,45,47,49,51,53,55,57,59,61,63,65,67,69,71,73,75,77,79,81,83,85,87,89,91,93,95,97,99,101,103,105,107,109,111,113,115,117,119,121,123,125,-1,-1,-1,-1,-1,-1,-1,-1,-1,-1,-1,-1,-1,-1,-1,-1,-1,-1,-1,-1,-1,-1,-1,-1,-1,-1,-1,-1,-1,-1,-1,-1,-1,-1,-1,-1,-1,-1,-1,-1,-1,-1,-1,-1,-1,-1,-1,-1,-1,-1,-1,-1,-1,-1,-1,-1,-1,-1,-1,-1,-1,-1,-1,-1],"loss_changes":[1.0929688E3,7.072911E2,5.427168E2,3.4696573E2,3.433993E2,4.794641E2,1.6971094E2,3.4566498E1,1.311918E2,9.770764E1,1.1944177E2,1.1060522E2,1.6792578E2,7.657849E1,4.9573242E1,1.6567047E1,2.7840784E1,7.333813E1,6.2135605E1,6.3449226E1,3.99349E1,1.1208594E2,1.2538086E1,7.6705956E1,4.2431244E1,2.1086505E2,3.675952E1,7.121007E1,3.3393127E1,5.793628E1,6.3168945E0,2.0890602E1,9.418701E0,3.125143E0,2.3125538E1,3.2168365E1,4.7512302E1,6.5383514E1,1.1513367E1,3.0239319E1,3.7343475E1,5.7322044E1,5.6257095E0,9.416324E1,2.1008911E1,2.07276E1,2.0369873E0,2.9047253E1,3.317238E1,1.1883927E1,2.040387E1,3.7498535E1,1.5583577E2,4.6254578E1,6.578247E0,2.6510193E1,6.1508686E1,2.1063995E1,2.5210571E0,1.1947266E1,6.75072E1,1.3723755E1,1.8619385E0,0E0,0E0,0E0,0E0,0E0,0E0,0E0,0E0,0E0,0E0,0E0,0E0,0E0,0E0,0E0,0E0,0E0,0E0,0E0,0E0,0E0,0E0,0E0,0E0,0E0,0E0,0E0,0E0,0E0,0E0,0E0,0E0,0E0,0E0,0E0,0E0,0E0,0E0,0E0,0E0,0E0,0E0,0E0,0E0,0E0,0E0,0E0,0E0,0E0,0E0,0E0,0E0,0E0,0E0,0E0,0E0,0E0,0E0,0E0,0E0,0E0,0E0,0E0,0E0],"parents":[2147483647,0,0,1,1,2,2,3,3,4,4,5,5,6,6,7,7,8,8,9,9,10,10,11,11,12,12,13,13,14,14,15,15,16,16,17,17,18,18,19,19,20,20,21,21,22,22,23,23,24,24,25,25,26,26,27,27,28,28,29,29,30,30,31,31,32,32,33,33,34,34,35,35,36,36,37,37,38,38,39,39,40,40,41,41,42,42,43,43,44,44,45,45,46,46,47,47,48,48,49,49,50,50,51,51,52,52,53,53,54,54,55,55,56,56,57,57,58,58,59,59,60,60,61,61,62,62],"right_children":[2,4,6,8,10,12,14,16,18,20,22,24,26,28,30,32,34,36,38,40,42,44,46,48,50,52,54,56,58,60,62,64,66,68,70,72,74,76,78,80,82,84,86,88,90,92,94,96,98,100,102,104,106,108,110,112,114,116,118,120,122,124,126,-1,-1,-1,-1,-1,-1,-1,-1,-1,-1,-1,-1,-1,-1,-1,-1,-1,-1,-1,-1,-1,-1,-1,-1,-1,-1,-1,-1,-1,-1,-1,-1,-1,-1,-1,-1,-1,-1,-1,-1,-1,-1,-1,-1,-1,-1,-1,-1,-1,-1,-1,-1,-1,-1,-1,-1,-1,-1,-1,-1,-1,-1,-1,-1],"split_conditions":[2.6727176E0,3.1146688E0,3.0267782E0,3.0907671E0,2.40372E0,2.325035E0,1.989266E0,4.131213E0,3.2259998E0,3.384868E0,3.3262227E0,3.8657649E0,2.8536806E0,2.675614E0,2.1932256E0,2.457539E0,1.7533569E0,1.2475237E0,2.9973826E0,1.5558517E0,3.5319724E0,4.2284117E0,2.2775087E0,4.3682747E0,1.4829757E0,1.0270566E0,4.154298E0,1.0016508E0,2.657191E0,9.82522E-1,2.0834897E0,2.6789975E0,2.250297E0,1.2263275E0,3.9071822E0,1.5185709E0,4.253561E0,1.0102583E0,1.8235035E0,4.0811634E0,2.423034E0,5.043399E-1,3.6375294E0,1.0271175E0,1.8834002E0,1.0517042E0,5.0426E0,1.4502223E0,1.7682137E0,4.574133E0,4.1729374E0,3.8230546E0,3.5731652E0,3.1146443E0,1.6115639E0,4.1607676E0,3.8012757E0,3.9758916E0,4.8322325E0,4.1276455E0,3.5978436E0,1.0077252E0,4.9917693E0,-2.2872144E-2,-1.258454E-1,-1.6174945E-1,-1.0846445E-1,3.6017295E-2,-1.4133146E-1,-1.8635831E-3,2.4590865E-1,-4.181348E-2,9.010751E-2,-7.917612E-2,1.3911095E-1,1.5740752E-1,-3.2065276E-2,1.8271777E-1,3.136526E-1,-2.6425509E-2,1.0116133E-1,-1.571188E-1,-4.0100752E-3,1.6164216E-1,-5.3870276E-2,1.6222298E-1,3.0537522E-1,1.7156503E-1,4.5147445E-2,1.8568204E-1,2.7527007E-1,2.5420672E-1,1.4373045E-1,2.9259458E-1,2.8327666E-2,-1.3367674E-2,-1.0046663E-1,-2.8411595E-2,1.24633245E-1,-6.920335E-2,1.3440825E-1,1.16708696E-1,2.4368988E-1,1.5695041E-1,2.357748E-1,1.6477596E-2,2.313206E-1,1.6852888E-1,2.8838724E-1,2.319796E-1,2.8617758E-1,1.2421286E-1,2.3785225E-1,-1.23806605E-2,2.4310632E-1,1.2864456E-1,2.3138082E-1,3.1059176E-1,1.2670383E-1,2.318696E-1,2.724652E-1,1.176187E-1,2.4153155E-1,2.724475E-1,2.1652609E-1,2.8823286E-1,1.5398619E-1],"split_indices":[2,1,0,0,0,1,1,3,3,3,3,3,3,3,3,5,1,8,4,8,4,0,4,2,0,8,3,8,4,8,4,6,0,6,4,1,4,9,1,1,3,4,1,8,2,9,8,8,0,2,2,1,4,4,0,2,4,0,8,0,1,9,9,0,0,0,0,0,0,0,0,0,0,0,0,0,0,0,0,0,0,0,0,0,0,0,0,0,0,0,0,0,0,0,0,0,0,0,0,0,0,0,0,0,0,0,0,0,0,0,0,0,0,0,0,0,0,0,0,0,0,0,0,0,0,0,0],"split_type":[0,0,0,0,0,0,0,0,0,0,0,0,0,0,0,0,0,0,0,0,0,0,0,0,0,0,0,0,0,0,0,0,0,0,0,0,0,0,0,0,0,0,0,0,0,0,0,0,0,0,0,0,0,0,0,0,0,0,0,0,0,0,0,0,0,0,0,0,0,0,0,0,0,0,0,0,0,0,0,0,0,0,0,0,0,0,0,0,0,0,0,0,0,0,0,0,0,0,0,0,0,0,0,0,0,0,0,0,0,0,0,0,0,0,0,0,0,0,0,0,0,0,0,0,0,0,0],"sum_hessian":[3.1717236E4,1.1626157E4,2.0091078E4,5.2990083E3,6.327149E3,9.364086E3,1.0726992E4,2.378126E3,2.920882E3,1.8695464E3,4.4576025E3,2.5615012E3,6.8025845E3,2.3997478E3,8.327245E3,1.9737217E3,4.0440436E2,1.9129652E3,1.00791693E3,1.2618898E3,6.0765656E2,3.093983E3,1.3636195E3,1.9496074E3,6.118938E2,4.1400435E3,2.6625413E3,1.3836558E3,1.0160919E3,4.3881953E3,3.9390493E3,7.2542755E2,1.2482942E3,1.4018906E2,2.642153E2,9.9943353E2,9.135317E2,7.3934607E2,2.6857086E2,6.679014E2,5.9398834E2,4.7274197E2,1.349146E2,2.1259487E3,9.680344E2,8.8711365E2,4.7650583E2,1.378152E3,5.714554E2,1.3740128E2,4.7449255E2,2.2031406E3,1.9369028E3,1.5850898E3,1.0774513E3,7.850952E2,5.985606E2,7.319503E2,2.841416E2,2.7977737E3,1.5904219E3,2.4894146E3,1.4496346E3,3.0939157E2,4.1603595E2,7.189929E2,5.293012E2,9.204331E0,1.3098473E2,2.2531131E2,3.8904003E1,2.1006662E2,7.893669E2,8.1359924E2,9.993241E1,4.9495584E2,2.4439018E2,1.0499267E2,1.6357822E2,3.226061E2,3.4529532E2,3.5289066E2,2.4109766E2,2.959157E2,1.7682626E2,3.85689E1,9.634569E1,1.0167439E3,1.1092047E3,5.0381534E2,4.6421906E2,6.842086E2,2.0290503E2,4.736389E2,2.8669496E0,6.868642E2,6.912877E2,1.9092981E2,3.805256E2,1.04204926E2,3.3196354E1,2.7780524E2,1.966873E2,1.1689274E3,1.0342134E3,1.5605212E3,3.7638156E2,1.199352E3,3.8573782E2,3.2208127E2,7.5537E2,4.8046796E2,3.0462726E2,4.9733698E2,1.0122362E2,3.4343353E2,3.8851678E2,2.7534845E2,8.793169E0,1.5629572E3,1.2348165E3,8.1889825E2,7.715237E2,1.9614031E3,5.2801154E2,1.4366307E3,1.3003896E1],"tree_param":{"num_deleted":"0","num_feature":"10","num_nodes":"127","size_leaf_vector":"0"}},{"base_weights":[-5.2216464E-1,-4.3517953E-1,-5.543754E-1,-2.3234582E-1,-5.115132E-1,-5.179227E-1,-5.70853E-1,9.119686E-2,-4.0510875E-1,-4.290185E-1,-5.609397E-1,-3.7957966E-1,-5.4626685E-1,-5.322877E-1,-5.7217073E-1,2.18396E-1,-4.35002E-1,-2.6921055E-1,-5.153012E-1,-2.9778975E-1,-5.116357E-1,-5.255488E-1,-5.719112E-1,-2.2544418E-1,-5.0616807E-1,-4.947709E-1,-5.667253E-1,-3.2620406E-1,-5.5862063E-1,-1.5881717E-2,5.488041E-1,-2.0682588E-1,-5.6663346E-1,-1.301572E-1,-5.4981726E-1,-4.724376E-1,-5.717915E-1,-1.6123141E-1,-5.4508674E-1,-4.620716E-1,-5.73074E-1,-4.0697703E-1,-5.6159735E-1,-2.497625E-2,-4.516308E-1,-4.1524664E-1,-5.451263E-1,-3.5385433E-1,-5.334419E-1,-5.2865994E-1,-5.7158726E-1,3.1545722E-1,-4.6430856E-1,-3.5154095E-1,-5.652376E-1,-3.126828E-1,3.0168936E-1,6.392938E-1,-3.753007E-1,-5.094055E-1,2.277143E-1,-3.8783816E-1,6.1300788E-2,-5.571613E-1,1.9537522E-1,-5.270071E-1,-3.0039293E-1,-3.073329E-1,2.4565588E-1,1.8664117E-1,-5.5023897E-1,-3.367967E-1,-5.2371854E-1,-2.8581247E-1,-5.643651E-1,-5.6386554E-1,4.749433E-2,-1.4096005E-1,8.17595E-1,-1.9199802E-1,-5.1752305E-1,-4.57614E-1,2.2533178E-1,-5.487055E-1,1.4317657E-1,-2.163082E-1,-5.564519E-1,-4.9456072E-1,-5.6961745E-1,-5.318358E-1,1.6267604E-1,1.0856894E0,-4.458182E-1,-4.92706E-1,1.6283692E-1,-5.208428E-1,5.7205933E-1],"categories":[],"categories_nodes":[],"categories_segments":[],"categories_sizes":[],"default_left":[1,1,1,1,1,1,1,1,1,1,1,1,1,1,0,1,1,1,1,1,1,1,0,1,1,1,1,1,1,1,1,1,0,1,1,1,0,1,1,1,0,1,1,1,1,1,1,1,1,1,0,1,1,1,0,0,0,0,0,0,0,0,0,0,0,0,0,0,0,0,0,0,0,0,0,0,0,0,0,0,0,0,0,0,0,0,0,0,0,0,0,0,0,0,0,0,0],"id":14,"left_children":[1,3,5,7,9,11,13,15,17,19,21,23,25,27,-1,29,31,33,35,37,39,41,-1,43,45,47,49,51,53,55,57,59,-1,61,63,65,-1,67,69,71,-1,73,75,77,79,81,83,85,87,89,-1,91,93,95,-1,-1,-1,-1,-1,-1,-1,-1,-1,-1,-1,-1,-1,-1,-1,-1,-1,-1,-1,-1,-1,-1,-1,-1,-1,-1,-1,-1,-1,-1,-1,-1,-1,-1,-1,-1,-1,-1,-1,-1,-1,-1,-1],"loss_changes":[5.0854004E1,7.625464E1,7.696045E0,7.5530495E1,1.4369324E1,1.6075928E1,1.6040039E-1,3.1617205E1,1.3048904E1,1.4448547E1,5.682373E-1,1.3727592E1,3.3482666E0,1.5367813E0,0E0,2.9418917E1,2.6465569E0,1.5396549E1,9.047699E-1,1.7563545E1,2.2475739E0,2.0873108E0,0E0,1.4575537E1,1.1504822E0,5.1905975E0,1.52771E-1,3.5398521E0,1.8423462E-1,2.1139915E1,1.3423649E1,4.7492332E0,0E0,1.3165588E1,8.2601166E-1,2.4858513E0,0E0,2.0178013E1,8.021469E-1,3.3900986E0,0E0,2.316824E0,5.971527E-1,1.6885149E1,2.485527E0,3.3813572E0,7.4105835E-1,5.885868E0,8.0500793E-1,7.27005E-1,0E0,4.8098965E0,6.48623E-1,2.0646827E0,0E0,0E0,0E0,0E0,0E0,0E0,0E0,0E0,0E0,0E0,0E0,0E0,0E0,0E0,0E0,0E0,0E0,0E0,0E0,0E0,0E0,0E0,0E0,0E0,0E0,0E0,0E0,0E0,0E0,0E0,0E0,0E0,0E0,0E0,0E0,0E0,0E0,0E0,0E0,0E0,0E0,0E0,0E0],"parents":[2147483647,0,0,1,1,2,2,3,3,4,4,5,5,6,6,7,7,8,8,9,9,10,10,11,11,12,12,13,13,15,15,16,16,17,17,18,18,19,19,20,20,21,21,23,23,24,24,25,25,26,26,27,27,28,28,29,29,30,30,31,31,33,33,34,34,35,35,37,37,38,38,39,39,41,41,42,42,43,43,44,44,45,45,46,46,47,47,48,48,49,49,51,51,52,52,53,53],"right_children":[2,4,6,8,10,12,14,16,18,20,22,24,26,28,-1,30,32,34,36,38,40,42,-1,44,46,48,50,52,54,56,58,60,-1,62,64,66,-1,68,70,72,-1,74,76,78,80,82,84,86,88,90,-1,92,94,96,-1,-1,-1,-1,-1,-1,-1,-1,-1,-1,-1,-1,-1,-1,-1,-1,-1,-1,-1,-1,-1,-1,-1,-1,-1,-1,-1,-1,-1,-1,-1,-1,-1,-1,-1,-1,-1,-1,-1,-1,-1,-1,-1],"split_conditions":[2.0549164E0,2.0329423E0,2.2309964E0,2.2804008E0,2.4341874E0,1.6444638E0,1.1305794E0,3.5016103E0,3.457946E0,3.1218648E0,2.7237582E0,3.2880669E0,2.6134748E0,2.397747E0,-1.7165123E-1,3.2818627E0,1.4205481E0,2.7725132E0,2.450127E0,2.6852918E0,2.1971045E0,3.020773E0,-1.7157337E-1,2.1242502E0,1.4076209E0,2.6808171E0,2.4078128E0,2.790288E0,2.338678E0,3.2061589E0,3.5700974E0,3.7233267E0,-1.6999005E-1,2.8441002E0,4.993147E0,2.792707E0,-1.7153746E-1,3.0364892E0,1.0034231E0,1.4416492E0,-1.719222E-1,2.2258005E0,5.065975E0,3.748135E0,1.2671614E0,4.64971E0,5.053095E0,2.4686046E0,1.9361961E0,2.406084E0,-1.7147619E-1,1.6020314E0,4.620859E0,4.203603E0,-1.6957128E-1,-9.380484E-2,9.050681E-2,1.9178815E-1,-1.12590216E-1,-1.5282166E-1,6.831429E-2,-1.1635145E-1,1.8390236E-2,-1.6714838E-1,5.8612566E-2,-1.5810214E-1,-9.011788E-2,-9.219988E-2,7.369677E-2,5.5992354E-2,-1.650717E-1,-1.01039015E-1,-1.5711556E-1,-8.574374E-2,-1.6930953E-1,-1.6915967E-1,1.4248299E-2,-4.2288017E-2,2.4527851E-1,-5.7599407E-2,-1.5525693E-1,-1.372842E-1,6.7599535E-2,-1.6461167E-1,4.2952973E-2,-6.489246E-2,-1.6693558E-1,-1.4836822E-1,-1.7088524E-1,-1.5955074E-1,4.880281E-2,3.2570684E-1,-1.3374546E-1,-1.478118E-1,4.885108E-2,-1.5625285E-1,1.716178E-1],"split_indices":[5,6,6,7,7,7,7,8,7,6,6,5,7,5,0,2,7,8,8,8,8,7,0,8,6,5,5,6,6,0,9,1,0,0,3,3,0,3,2,7,0,8,2,3,6,3,2,8,8,5,0,8,3,2,0,0,0,0,0,0,0,0,0,0,0,0,0,0,0,0,0,0,0,0,0,0,0,0,0,0,0,0,0,0,0,0,0,0,0,0,0,0,0,0,0,0,0],"split_type":[0,0,0,0,0,0,0,0,0,0,0,0,0,0,0,0,0,0,0,0,0,0,0,0,0,0,0,0,0,0,0,0,0,0,0,0,0,0,0,0,0,0,0,0,0,0,0,0,0,0,0,0,0,0,0,0,0,0,0,0,0,0,0,0,0,0,0,0,0,0,0,0,0,0,0,0,0,0,0,0,0,0,0,0,0,0,0,0,0,0,0,0,0,0,0,0,0],"sum_hessian":[1.8235328E4,4.9317246E3,1.33036045E4,1.3496031E3,3.5821216E3,4.15161E3,9.151994E3,4.6995834E2,8.7964484E2,1.3457308E3,2.2363906E3,7.084032E2,3.4432065E3,3.157632E2,8.836231E3,3.789411E2,9.101726E1,3.9542194E2,4.842229E2,5.2168835E2,8.2404254E2,5.408051E2,1.6955854E3,3.2069824E2,3.87705E2,9.861509E2,2.4570557E3,3.729298E1,2.784702E2,2.2228242E2,1.5665866E2,3.423828E1,5.6778976E1,2.6537866E2,1.3004329E2,2.8064142E2,2.0358148E2,3.3715958E2,1.845288E2,4.6081204E2,3.6323047E2,1.2894987E2,4.1185522E2,1.7060362E2,1.5009462E2,1.1979172E2,2.6791327E2,2.145357E2,7.716152E2,2.9071503E2,2.1663406E3,6.3775244E0,3.0915455E1,1.0298593E1,2.6817163E2,1.149065E2,1.0737592E2,1.429673E2,1.3691363E1,2.0082277E1,1.4156003E1,1.1268781E2,1.5269084E2,1.2902406E2,1.0192283E0,2.1149556E2,6.914586E1,2.4826091E2,8.889866E1,1.0439161E0,1.8348488E2,1.541077E2,3.0670435E2,7.4450455E1,5.449942E1,4.1040118E2,1.454049E0,1.5069278E2,1.991085E1,3.1174128E1,1.18920494E2,1.126282E2,7.1635194E0,2.6672906E2,1.1841938E0,1.2901407E2,8.552162E1,3.789713E2,3.926439E2,2.896153E2,1.0997069E0,2.9582865E0,3.4192379E0,2.9781311E1,1.1341442E0,9.071755E0,1.2268374E0],"tree_param":{"num_deleted":"0","num_feature":"10","num_nodes":"97","size_leaf_vector":"0"}},{"base_weights":[-5.551965E-1],"categories":[],"categories_nodes":[],"categories_segments":[],"categories_sizes":[],"default_left":[0],"id":15,"left_children":[-1],"loss_changes":[0E0],"parents":[2147483647],"right_children":[-1],"split_conditions":[-1.6655897E-1],"split_indices":[0],"split_type":[0],"sum_hessian":[1.4816384E4],"tree_param":{"num_deleted":"0","num_feature":"10","num_nodes":"1","size_leaf_vector":"0"}},{"base_weights":[-3.9486262E-1,-2.4505682E-1,-4.695803E-1,-5.987221E-2,-4.2524278E-1,-3.7974465E-1,-5.1097757E-1,1.7274612E-1,-3.2641292E-1,-1.733355E-1,-4.6384087E-1,-2.3788206E-1,-4.761518E-1,-5.3122145E-1,-4.3246305E-1,3.4852695E-1,-2.3521508E-1,-1.877871E-1,-4.2481884E-1,-9.678322E-3,-4.4714066E-1,-5.2343017E-1,-3.8607392E-1,-1.6754352E-2,-3.9865223E-1,-5.25411E-1,-3.4442264E-1,-5.391597E-1,-4.6510223E-1,-5.147652E-1,-3.0398673E-1,1.298457E-1,5.860685E-1,-8.620992E-2,-4.4505304E-1,-2.2868497E-2,-3.956661E-1,-4.9520993E-1,-2.8205094E-1,1.9780812E-1,-3.8284317E-1,-4.850004E-1,2.122625E-1,-4.6716544E-1,-5.490763E-1,-4.8159322E-1,-1.7950438E-1,1.4066625E-1,-4.638399E-1,-3.1370723E-1,-5.0115937E-1,-4.292497E-1,-5.402519E-1,-4.6241012E-1,-7.966785E-2,-5.044752E-1,-5.476178E-1,-5.035058E-1,-2.3192176E-1,-5.2961344E-1,-3.707297E-1,-4.9802542E-1,-1.4548026E-1,2.8965884E-1,-5.133254E-2,7.80839E-1,2.220274E-2,3.5800996E-1,-1.9759186E-1,-4.601009E-1,7.2895426E-1,-1.3079643E-1,5.7008386E-1,-4.8787525E-1,-2.1161333E-1,-4.990062E-1,2.975995E-1,-3.8779327E-1,1.7357467E-1,3.0574432E-1,-5.795285E-1,-4.028949E-1,2.7865723E-1,-5.0541973E-1,3.5265807E-2,7.1822554E-1,-4.357577E-1,-2.4684614E-1,-5.1320297E-1,-5.532044E-1,-2.9548302E-1,-4.9705648E-1,-6.0782894E-2,-3.73841E-1,2.645422E-1,-6.747357E-2,3.8047305E-1,-4.869243E-1,4.7993535E-1,-3.6845213E-1,-1.7006451E-2,-5.4503083E-1,-3.3861825E-1,-4.6711144E-1,2.0810945E-1,-5.3213734E-2,-5.4099673E-1,-4.6964863E-1,9.05415E-1,-3.703112E-1,2.4755353E-1,-3.7140977E-1,-5.3E-1,-5.542976E-1,-5.267302E-1,-5.069926E-1,5.2227485E-1,6.324737E-1,-3.3783707E-1,-1.6357002E-1,-5.339395E-1,-4.5139912E-1,8.9034475E-2,-5.109457E-1,-1.3289039E-1,-2.2294176E-1,4.597728E-1],"categories":[],"categories_nodes":[],"categories_segments":[],"categories_sizes":[],"default_left":[1,1,1,1,1,1,1,1,1,1,1,1,1,1,1,1,1,1,1,1,1,1,1,1,1,1,1,1,1,1,1,1,1,1,1,1,1,1,1,1,1,1,1,1,1,1,1,1,1,1,1,1,1,1,1,1,1,1,1,1,1,1,1,0,0,0,0,0,0,0,0,0,0,0,0,0,0,0,0,0,0,0,0,0,0,0,0,0,0,0,0,0,0,0,0,0,0,0,0,0,0,0,0,0,0,0,0,0,0,0,0,0,0,0,0,0,0,0,0,0,0,0,0,0,0,0,0],"id":16,"left_children":[1,3,5,7,9,11,13,15,17,19,21,23,25,27,29,31,33,35,37,39,41,43,45,47,49,51,53,55,57,59,61,63,65,67,69,71,73,75,77,79,81,83,85,87,89,91,93,95,97,99,101,103,105,107,109,111,113,115,117,119,121,123,125,-1,-1,-1,-1,-1,-1,-1,-1,-1,-1,-1,-1,-1,-1,-1,-1,-1,-1,-1,-1,-1,-1,-1,-1,-1,-1,-1,-1,-1,-1,-1,-1,-1,-1,-1,-1,-1,-1,-1,-1,-1,-1,-1,-1,-1,-1,-1,-1,-1,-1,-1,-1,-1,-1,-1,-1,-1,-1,-1,-1,-1,-1,-1,-1],"loss_changes":[1.8323218E2,1.8193454E2,4.044702E1,1.6687053E2,2.6791748E1,4.708673E1,1.1656006E1,1.0315335E2,1.7028885E1,1.6521702E1,1.0900818E1,4.9706886E1,1.3145691E1,2.8674316E0,1.6108643E1,5.2123924E1,1.3512972E1,1.7902685E1,7.2235107E0,1.8027283E1,3.5468044E0,1.6968384E0,2.0498077E1,4.157079E1,6.892807E0,1.8986206E0,1.7514854E1,1.277832E0,5.6508484E0,1.8058167E0,1.847596E1,1.5201655E1,5.285115E1,1.267186E1,3.5105019E0,1.8786894E1,3.818287E0,1.6214905E0,1.1836313E1,1.2734326E1,1.2157135E0,1.4069805E0,2.9969E0,4.240288E0,8.040161E-1,4.6078796E0,2.8702227E1,2.1834068E1,3.5845757E0,7.2287445E0,2.4198303E0,5.0313034E0,4.3899536E-1,4.271347E0,1.66795E1,3.3738403E0,3.0078125E-1,2.2395782E0,8.721577E0,1.2528687E0,3.408659E0,1.2093124E0,1.57308235E1,0E0,0E0,0E0,0E0,0E0,0E0,0E0,0E0,0E0,0E0,0E0,0E0,0E0,0E0,0E0,0E0,0E0,0E0,0E0,0E0,0E0,0E0,0E0,0E0,0E0,0E0,0E0,0E0,0E0,0E0,0E0,0E0,0E0,0E0,0E0,0E0,0E0,0E0,0E0,0E0,0E0,0E0,0E0,0E0,0E0,0E0,0E0,0E0,0E0,0E0,0E0,0E0,0E0,0E0,0E0,0E0,0E0,0E0,0E0,0E0,0E0,0E0,0E0,0E0],"parents":[2147483647,0,0,1,1,2,2,3,3,4,4,5,5,6,6,7,7,8,8,9,9,10,10,11,11,12,12,13,13,14,14,15,15,16,16,17,17,18,18,19,19,20,20,21,21,22,22,23,23,24,24,25,25,26,26,27,27,28,28,29,29,30,30,31,31,32,32,33,33,34,34,35,35,36,36,37,37,38,38,39,39,40,40,41,41,42,42,43,43,44,44,45,45,46,46,47,47,48,48,49,49,50,50,51,51,52,52,53,53,54,54,55,55,56,56,57,57,58,58,59,59,60,60,61,61,62,62],"right_children":[2,4,6,8,10,12,14,16,18,20,22,24,26,28,30,32,34,36,38,40,42,44,46,48,50,52,54,56,58,60,62,64,66,68,70,72,74,76,78,80,82,84,86,88,90,92,94,96,98,100,102,104,106,108,110,112,114,116,118,120,122,124,126,-1,-1,-1,-1,-1,-1,-1,-1,-1,-1,-1,-1,-1,-1,-1,-1,-1,-1,-1,-1,-1,-1,-1,-1,-1,-1,-1,-1,-1,-1,-1,-1,-1,-1,-1,-1,-1,-1,-1,-1,-1,-1,-1,-1,-1,-1,-1,-1,-1,-1,-1,-1,-1,-1,-1,-1,-1,-1,-1,-1,-1,-1,-1,-1],"split_conditions":[2.1976218E0,2.743524E0,2.1759586E0,2.818601E0,1.507976E0,2.513358E0,4.2099304E0,2.7267997E0,3.6624112E0,2.48207E0,3.2893748E0,3.2341075E0,3.9866238E0,4.5774546E0,3.537684E0,1.1623906E0,3.9637332E0,1.9245787E0,3.7038975E0,4.077057E0,4.8154E0,2.5615864E0,3.7941916E0,3.0758002E0,2.181582E0,2.5482802E0,3.914143E0,1.7572746E0,4.156131E0,4.648654E0,2.8772478E0,1.8189616E0,2.68128E0,1.3505526E0,4.9732985E0,3.3182054E0,3.7925339E0,5.0322456E0,4.316975E0,2.7109392E0,4.866912E0,4.6960487E0,1.1831458E0,3.127183E0,4.930876E0,4.805645E0,3.887455E0,1.3878169E0,4.926859E0,3.493153E0,4.15473E0,4.4260783E0,1.0027139E0,5.0456023E0,3.4484303E0,2.6273947E0,3.4147778E0,5.068382E0,2.4563081E0,1.0465903E0,3.2139087E0,4.795582E0,3.827899E0,8.689766E-2,-1.5399762E-2,2.3425172E-1,6.6608223E-3,1.07402995E-1,-5.927756E-2,-1.3803028E-1,2.1868628E-1,-3.923893E-2,1.7102516E-1,-1.4636259E-1,-6.3484E-2,-1.4970186E-1,8.927985E-2,-1.16337985E-1,5.2072402E-2,9.17233E-2,-1.7385855E-1,-1.2086848E-1,8.359717E-2,-1.5162593E-1,1.05797425E-2,2.1546768E-1,-1.3072732E-1,-7.405385E-2,-1.539609E-1,-1.6596133E-1,-8.864491E-2,-1.4911695E-1,-1.823487E-2,-1.121523E-1,7.936266E-2,-2.024207E-2,1.1414192E-1,-1.4607729E-1,1.439806E-1,-1.10535644E-1,-5.1019355E-3,-1.6350925E-1,-1.0158548E-1,-1.4013344E-1,6.2432837E-2,-1.596412E-2,-1.6229902E-1,-1.4089459E-1,2.716245E-1,-1.11093365E-1,7.426606E-2,-1.1142293E-1,-1.59E-1,-1.662893E-1,-1.5801907E-1,-1.5209778E-1,1.5668246E-1,1.8974212E-1,-1.0135113E-1,-4.9071006E-2,-1.6018185E-1,-1.3541974E-1,2.6710344E-2,-1.5328372E-1,-3.9867118E-2,-6.688253E-2,1.3793184E-1],"split_indices":[0,1,2,2,2,1,5,3,2,3,6,0,7,7,6,8,3,3,6,1,8,2,5,3,3,0,6,1,8,7,7,1,4,1,9,8,7,8,5,4,8,9,4,1,7,8,7,8,9,8,